2708 64
163 0.07566178 -0.01685383 -0.09205091 0.02619062 0.014401325 0.28135505 0.038706988 0.6257751 -0.19122107 -0.53534937 0.10267182 0.22194736 -0.11627663 -0.37461695 -0.18659504 0.07643989 0.27800447 -0.017790137 -0.3643489 0.15044965 0.10078951 0.43584487 -0.15160386 -0.0020607044 -0.12756723 -0.5149486 0.2816294 -0.12638682 0.24353853 -0.26164255 -0.0067577637 -0.027229747 -0.06171411 0.3603684 -0.20593822 0.119614325 -0.2399171 -0.49688667 -0.24099469 -0.20085317 0.2593646 0.38093466 -0.15692548 -0.13234092 0.27415654 -0.063050866 0.14610027 -0.46655476 0.15845953 0.07614225 0.58972377 -0.36334556 0.45396876 0.14258389 -0.09281005 -0.07064739 -0.33063093 0.3574021 -0.14867197 0.066762075 -0.32939944 0.31934923 -0.6197927 0.23073353
747 -0.13243468 0.7150775 0.41815692 0.3520216 0.22377387 0.59722227 0.029198918 -0.16282134 0.11829909 0.12835981 0.34710428 0.29830578 -0.74549407 0.42254424 -0.43572697 -0.06775154 0.1196634 0.31689966 -0.18853913 -0.14048234 0.13527875 -0.030346002 -0.5661079 -0.44415945 0.53431326 -0.00336498 0.10255334 0.021319034 -0.053418096 0.3920848 0.15711208 -0.29429862 0.34748265 0.31770813 -0.15709262 -0.12557906 0.019349381 -0.26626763 -0.60354584 -0.55108136 -0.21916534 0.02486973 -0.288275 -0.12015973 -0.93279725 -0.10841864 0.2323292 -0.06314074 -0.22609042 -0.0535024 0.5352178 0.16253081 -0.20537019 0.45093063 0.1945346 -0.47176445 0.044018667 -0.20582303 -0.20367044 -0.036890157 -0.8348652 -0.0865623 -0.3741546 0.038131256
565 -0.3432071 -0.048085634 -0.2872249 -0.23322494 0.2738573 -0.27697587 0.32685453 0.4363964 0.44935703 -0.5325248 0.15188152 -0.029911736 -0.24170324 -0.18642047 0.039888505 0.39010933 0.34569 -0.36441332 -0.36391822 -0.45789883 -0.25408116 0.10670276 0.2668901 -0.021781223 -0.27040863 -0.64838654 0.08867231 -0.39934814 -0.18518698 0.48510703 -0.2805357 -0.65766203 0.34163684 0.25948012 -0.20296971 -0.20534134 -0.19742669 -0.5213973 -0.39589974 0.16074757 0.118646584 0.14689356 -0.19352995 0.09443641 -0.61722213 0.53977036 -0.15439045 0.2135985 -0.0946276 0.011378631 0.46026576 0.12339253 -0.015826205 0.3170772 0.20731029 -0.30610895 0.34636298 -0.2841207 -0.389595 -0.24147604 -0.45427522 0.057203747 0.002477696 -0.45575485
427 -0.2872496 0.20385058 -0.3085379 0.09070379 -0.26361516 0.31431955 0.36849737 0.118963934 -0.3939646 -0.17349306 0.25519612 -0.040675145 -0.16333385 0.0523375 -0.5451031 -0.01364612 0.15303306 -0.25105846 -0.005195825 0.07258323 0.64751625 0.18154673 -0.18415532 -0.27068713 0.21635821 0.2521215 0.37433407 0.048468526 0.33535787 0.07860081 -0.13737291 0.027074158 0.4086498 -0.10056587 0.29014325 -0.19416559 -0.547369 -0.020973805 -0.65529186 -0.4619725 -0.20163268 -0.026641278 -0.59385633 -0.13771795 -0.37714064 0.10642386 -0.050125398 -0.19655077 -0.60716367 0.12264493 0.071818836 0.22122216 -0.48457444 0.6229685 -0.009816712 0.41042736 0.55573606 0.16613334 0.04863887 -0.090730205 -0.91498613 0.23128611 -0.06277274 0.4467932
611 -0.38333964 0.6641753 -0.2722242 0.2580841 -0.17301351 0.40470132 0.28697345 -0.54979324 0.17676203 -0.3466211 -0.34199363 0.21080714 0.5496149 0.28389516 -0.15764664 0.050908927 0.04676334 -0.04261388 0.6093433 -0.017408587 0.16626573 0.18851417 0.17363879 -0.6334034 0.035084326 -0.3760651 -0.39411715 -0.70678616 -0.01557004 0.45245382 -0.15124528 0.26574215 0.65676636 0.28220493 0.38861904 -0.468788 0.41814208 -0.5087746 -0.50906533 -0.4381831 0.15892042 -0.25796387 -0.6652627 -0.019492932 -0.6607464 -0.34136373 0.5104926 -0.60759467 -0.019426972 0.026996268 0.3333802 0.12122894 0.1568845 -0.26988006 0.04172065 0.27579364 0.050742906 0.071851864 -0.65614814 -0.25785705 -0.5406267 0.14081857 -0.2894396 -0.41992262
74 -0.42774853 0.28735405 -0.23873222 0.06813844 0.17979066 0.76168585 -0.060307335 -0.18858793 0.46835425 0.45993885 0.018834876 0.44268814 0.5783126 -0.23274072 -0.4107909 0.17077985 0.08373166 -0.30443567 0.35412535 -0.6248547 -0.021961436 0.11931257 0.23084232 -0.6256824 0.12856776 -0.6471424 0.2949134 -0.08548758 0.14521447 0.4112258 0.5256263 -0.15652968 0.18070818 0.4493773 -0.009631423 -0.49800587 0.30527303 0.35372442 0.11439007 0.022747558 0.28144413 -0.14218794 -0.2602187 -0.47519562 -0.58718723 0.31368935 -0.026692372 -0.41045746 -0.1944781 -0.07251324 0.31723017 -0.304682 0.5069479 0.67420155 -0.34614253 0.08065829 0.63790375 -0.14489552 -0.21655992 0.42915007 -0.5333954 0.09030885 -0.09726499 -0.029646868
552 -0.36086795 0.027991878 -0.25983828 -0.3948813 0.7727663 0.096414305 0.4850754 0.3170644 0.33499935 -0.42224172 0.16014074 0.09246191 0.018790163 -0.0012984236 -0.23560993 0.3773584 0.2609134 -0.63419867 -0.50324523 0.023932785 -0.5788543 0.7428273 -0.19356897 -0.19144657 -0.27863014 -0.28755292 0.16675891 -0.2618437 -0.55061895 0.25683406 -0.38722077 -0.72931206 0.0988471 0.31397864 0.47178677 -0.1736013 -0.6445377 -0.49696514 -0.096963786 0.47262508 0.22810794 0.26047638 -0.90347755 0.13974981 -0.89072067 0.38097152 -0.04098862 0.18679242 0.078875124 0.03203162 0.19065705 0.19250076 0.09051296 0.22515762 -0.2519868 -0.11483478 0.11440724 0.036004253 -0.34750023 -0.56655234 -0.43156287 0.30366403 0.37713793 -0.25543675
430 -0.59633005 -0.2769244 0.34691188 -0.52728176 0.0051286286 0.4203287 -0.5791082 -0.61187387 -0.018992117 -0.43647724 0.02702205 -0.26771125 0.26819634 0.16851626 -0.39871207 0.20112605 -0.17489238 0.21712576 -0.94306266 0.19524449 0.022717878 0.087791085 0.6926081 -0.19978984 0.27800483 -0.76221573 -0.29733732 -0.2014907 0.4540348 -0.26598784 -0.18105736 -0.14250359 -0.065390036 0.34260052 -0.08080675 -0.9811276 -0.08994713 0.007401055 0.33400717 -0.28547922 -0.27276754 0.5412706 -0.4476722 -0.1727258 0.021421216 0.19785662 -0.3596437 -0.597371 -0.16868506 -0.5557328 0.38032833 -0.1474943 0.12823977 0.110728756 0.12995945 0.20616154 0.20551325 -0.01675126 0.20833172 -0.2674638 -0.44196275 0.083036825 0.037908964 0.6303763
745 -0.57203 0.20973682 0.11050116 0.59220475 0.05169904 0.615774 -0.060956385 -0.029087488 -0.5100607 -0.27717498 -0.13117915 0.41183344 -1.0269766 0.32349008 -0.5655662 -0.07220693 0.028632917 0.21535848 -0.021333942 0.15732108 0.21635342 0.12940288 -0.11752451 -0.4983701 0.39260793 -0.082434416 0.121817045 0.07674135 0.15287824 0.5266434 -0.5385121 0.25840905 0.17447543 0.17836902 0.30085856 -0.037369497 -0.1523686 -0.71695095 0.13832301 -0.15649731 0.12404461 -0.77030474 -0.3668066 0.74188006 -1.1612803 -0.10413497 0.061420266 -0.670492 -0.18138197 0.30373177 0.18000986 0.028297188 0.06925178 0.28831354 0.1418736 -0.5996591 0.85111105 -0.41613466 -0.22961344 -0.13213223 -0.7154964 0.014965193 -0.5675978 0.25030744
638 -0.33862847 -0.009877465 0.114342816 -0.52193695 0.4116615 0.083925284 0.34358335 -0.096804574 0.20764938 0.112178065 0.23080337 0.08112986 -0.7024792 0.4164312 -0.16802332 0.067906715 0.15766644 -0.04551546 -0.2539014 0.38988152 -0.005617669 -0.050551813 0.31699395 0.0045937328 -0.1362963 -0.41489893 0.31321913 -0.9477816 0.033122566 -0.22480951 0.1939464 0.67638886 0.48034096 0.029670345 -0.17281435 -0.27739513 -0.28221452 -0.23702873 0.39853796 0.058011375 -0.29484165 0.65762043 -0.29355145 0.08392557 0.23287308 -0.20001207 -0.5081939 -0.29960406 0.39525008 -0.372562 0.7597388 -0.058646057 -0.5442188 0.41308337 0.5133893 -0.18800989 0.3183235 -0.31985274 0.10443642 -0.06310148 -0.37444758 0.29850414 0.24965331 -0.08576776
157 -0.115605675 0.48397264 -0.45495087 0.3013864 -0.19492967 0.43166584 -0.46912122 -0.08532649 0.06253722 -0.5370689 0.07529819 0.54536045 0.18420993 0.0839331 -0.6613641 -0.052402046 0.33483052 0.37423566 0.76063555 -0.27543974 -0.014557004 0.5240728 0.3944804 -0.43885174 0.4598529 0.1275573 -0.25488207 -0.37400478 0.34821773 0.3331616 0.0774292 -0.39992142 0.32346842 -0.47096077 0.6248412 -0.38612866 0.35050085 -0.57923293 -0.7706868 -0.468566 0.34024876 0.602347 -0.09860478 -0.34394872 0.36565688 0.3411907 -0.25064948 -0.52528054 0.004841412 -0.54607147 0.34539858 -0.20878997 -0.07679439 -0.008420941 0.45682523 0.81595385 0.88875556 -0.6324129 0.07001343 -0.61277574 -0.20858786 0.32992646 0.22030349 -0.3217499
294 -0.28316078 0.10956164 0.043749582 -0.30512083 0.77037275 0.0719377 0.5180241 0.10127489 0.15024233 -0.4524041 0.10877602 -0.43815786 -0.6619061 0.23488602 -0.4297215 -0.1112413 0.34324154 -0.65875286 0.011183284 0.004394343 -0.19594908 0.44157374 -0.11199656 -0.1186259 0.15885842 -0.4174458 -0.22188537 0.14620124 -0.15044637 0.65459144 -0.3381051 -0.91379005 0.49845225 0.33067414 -0.12174325 -0.06086976 -0.04732991 -0.10656173 -0.65590745 -0.016025335 -0.37859318 0.32426208 -0.52335614 0.014393399 -0.49982315 0.22821505 -0.051302347 -0.051738616 -0.21664295 -0.19558115 0.9571423 0.38691497 0.0066362354 0.1410104 0.012661641 -0.39347795 -0.12165353 -0.08086062 -0.22172175 0.21625379 -0.64881116 0.54001266 0.075729385 -0.26627377
344 0.3875592 0.3661967 0.0006851458 -0.38621676 -0.40316316 0.09805776 -0.035973564 -0.3399508 0.44161454 -0.317093 0.010441132 0.6449029 -0.9898581 -0.27206084 0.33876374 -0.18829906 0.052409116 -0.7724177 -0.9086065 0.37506092 -0.4963974 -0.10106065 0.21523705 -0.6081976 -0.20096816 -0.2548102 0.50386196 -1.1391021 0.11838218 -0.87239385 0.31124946 -0.05138149 0.601774 0.18303668 -0.45406497 -0.09663371 0.3080145 -0.08281973 0.43420452 -0.119381234 0.024138821 0.5086543 -0.22256325 0.122034356 -0.75565124 -0.33458593 -0.033476654 -0.11422976 0.13870937 -0.5666495 -0.16351457 -0.5843944 -0.10668304 0.025684997 -0.041212484 0.25870392 0.74848455 0.22952005 0.4205167 0.121382855 -0.6810817 0.25658464 0.78680426 0.16792767
566 -0.11844137 0.22802216 0.1345325 -0.19313407 0.4359941 0.07105815 0.67532814 0.3011728 0.36202276 -0.77863383 0.10132088 -0.291644 -0.46227685 0.06826959 -0.2526376 -0.141443 0.9087879 -0.55255 -0.37676018 -0.51519257 -0.31899306 0.48047546 -0.3729925 -0.36892518 0.25898492 -0.54632723 -0.031580564 -0.3906585 -0.4549918 0.11256765 0.16328923 -0.3059552 0.17724304 0.18522425 -0.035049375 0.10598627 -0.6880573 -0.0633598 0.17879255 -0.08493683 0.022344654 0.09577342 -0.04227349 0.16205098 -0.30268192 0.34991297 -0.26670167 0.06374984 -0.20889701 0.010613237 0.3949114 0.5590408 -0.11782275 0.10652311 -0.3176378 0.016843969 0.35662362 -0.057648398 -0.26130527 -0.34695107 -0.56876725 0.021057865 -0.032323364 -0.35647327
523 -0.34692416 0.6966566 -0.22249338 0.000100107325 0.17452055 -0.5410577 0.30615407 0.2577944 0.2359223 -0.07219281 0.16680081 0.36281332 0.07132862 -0.1406699 0.06887932 -0.10247641 0.23207237 -0.35460085 -0.5042414 -0.7856047 -0.19543317 0.18552709 0.009299312 0.09011183 -0.09982277 -0.6591308 -0.03820801 -0.19860764 0.29399082 0.035937548 -0.18707962 -0.4768227 -0.038743984 0.672384 -0.5373458 0.03209181 -0.29150644 -0.7816123 -0.34364465 0.17421354 0.0539342 0.12911408 0.06872666 -0.23234501 -0.22788733 0.31842896 -0.031179348 0.30159742 0.057482485 0.04462562 0.7415781 -0.07021202 -0.103543654 -0.06679698 0.090263516 0.044221547 0.6658056 0.53433454 0.011599666 0.124373436 -0.23538254 0.009722436 -0.17437318 0.020121587
576 -0.47575885 0.4840483 0.45020792 -0.053406544 0.36177897 0.40700126 -0.8482744 0.5505369 -0.044221908 0.03825747 0.0021661064 -0.31610864 -0.85219806 -0.22511545 -0.24368545 -0.094711505 -0.29346767 -0.5508618 -0.17011583 -0.055368014 0.0729457 0.19681886 -0.4442652 -0.034304734 1.7114323 -0.77554834 0.2777165 -0.18448715 0.069351606 0.831896 -0.061754566 0.63565063 0.33577204 0.0052129026 -0.042061392 0.33442363 0.25598574 -0.2033732 -0.8309635 -0.43403754 1.4311833 -0.37298554 -0.36376157 0.33323893 -0.4285086 -0.79432076 0.060329683 -0.6131591 0.18299724 0.13494077 0.16410732 0.6610466 0.57962555 0.37740156 1.0552555 0.3576348 0.7517251 0.5554333 0.29377922 -0.39066938 -0.5424193 0.031748097 0.05071342 0.048853803
1354 -0.089079835 -0.2034701 -0.48209143 -1.3449011 -0.1855385 0.7445358 -0.16155486 -0.76151156 0.73214 -0.057012953 -0.37308046 -0.23916794 -0.46207473 0.54381156 0.763686 -0.04590066 0.0806034 -0.17684963 -0.3163259 0.034220498 -0.76413447 0.21073782 0.2416087 0.20203798 0.26277423 -0.11815619 -0.5697463 -0.9397058 0.18458341 0.08772926 0.22683202 0.31899762 -0.00604427 1.437283 0.36477426 0.63893986 -1.3159386 -0.40264088 0.06856216 -0.54651445 0.84533715 -0.6067014 0.54314667 -0.43564823 -0.3721266 0.19822209 1.1751108 0.34866327 -0.8166052 0.43053737 0.87222874 -0.46154517 0.0739017 -0.47824124 0.19887581 0.4038635 0.4301881 -0.5651869 0.40599433 0.01324024 -0.8886161 0.34882367 0.23968728 0.21413863
378 -0.016487906 -0.09527095 -0.053941652 -0.732983 -0.061523493 0.36503902 -0.041739773 -0.63107914 0.1112507 -0.040173527 -0.054362442 0.25592136 -0.3137208 -0.41217574 0.79146624 0.036087047 0.27180254 0.16062544 -0.6250968 0.2862131 -0.28875235 -0.3595115 -0.45004636 -0.53840953 -0.1251044 -0.5148721 0.24206005 -0.59136045 0.32369313 -0.18093686 0.22005281 -0.2125328 -0.12176254 -0.3509373 0.40506512 -0.3328103 -0.39804313 -0.37778118 -0.21740644 -0.57020915 -0.6422941 0.46428075 0.2538306 0.62739354 0.030829683 -0.12725596 -0.5270415 -0.37380016 0.3127563 -0.22375678 0.65985566 0.009196853 0.66894925 -0.12880328 0.5698596 0.17957635 0.6741775 0.11080393 0.15804021 0.5271926 -0.7244876 0.3699848 0.35734472 -0.27834836
453 0.58874124 1.0833871 -0.090809286 -0.68909866 -0.27053693 1.0314268 -0.019424176 -0.4866604 0.86128277 -0.81709546 -0.4155944 -0.059190955 -0.48361826 -0.16259044 -0.0974899 0.56051654 -0.12159148 0.0930753 0.08117473 -0.057724044 -0.46085572 -0.3735732 0.47753313 0.12092658 -0.019606018 -0.18948789 0.98025805 0.10719726 -0.38864613 0.26701027 -0.41831964 0.33591962 -0.46885404 -0.16464674 -0.17334788 -0.07754555 -0.3494798 -0.19791622 0.11778155 -0.950455 0.9138017 0.5573006 -0.9725294 0.13626282 0.5827847 -0.032693475 0.29846725 0.016298331 0.064615466 0.27388865 0.177271 0.19520612 -0.5210689 0.6530835 -0.2256941 0.27014697 0.5514068 -0.32926622 0.5503208 0.73174614 -0.3191225 0.5931734 0.10702868 -0.8391899
793 0.48757303 0.43245167 0.13301373 -0.22793354 0.13629578 0.57751864 0.062475912 0.8370208 -0.14226101 -0.5555913 0.17255369 0.06584449 -0.057216372 0.2813613 -0.38825706 0.5681698 0.76421314 0.35205 -0.16056082 0.17950547 0.3790397 0.6070931 -0.46167493 -0.4490305 -0.61212796 -0.717148 0.27193874 -0.24700448 0.09708251 -0.6706924 0.3468121 0.22017899 -0.009198015 0.8117576 0.13609819 0.23019798 -0.15978163 -0.6984534 0.09608859 0.24526912 0.57797116 0.53576195 -0.54809976 0.043024994 0.46539977 0.0081406925 0.5013087 -0.32873246 0.059779618 -0.6094051 0.63311344 -0.4461332 0.78180015 -0.18119852 0.39935082 0.078557774 -0.35285705 0.50472146 0.3284543 0.09360843 -0.26453203 0.2856542 -0.8166151 0.41024655
1644 0.16900739 0.10523432 -0.14602867 -0.9567254 0.19448063 0.3277397 0.1449494 -0.98705494 0.70764214 0.5140255 -0.03529068 0.048274387 -0.2618915 -0.33336854 0.28485134 -0.0072346213 0.7307847 0.26500705 0.104854666 0.07835959 -0.13973542 -0.5974967 -0.05769899 -0.3053195 -0.59862894 -0.62418276 -0.119584195 -0.8590232 0.3064989 -0.21286072 -0.3988354 0.5061927 0.3593728 -0.7453771 0.2737993 0.15563929 -0.28925234 -0.12378243 -0.17325108 -0.061781097 -0.1349145 0.34854952 -0.34302208 -0.039939083 -0.21754634 0.52385485 -0.027659375 -0.7739398 -0.07191144 -0.058816336 0.6576701 0.004294503 0.37294006 0.21215765 0.3679177 -0.36510226 0.0077525727 0.16218126 -0.037008528 -0.50066763 -0.617856 0.049056455 -0.22360012 -0.007274161
635 -0.8706349 -0.06757245 0.22955722 -0.67935294 0.28192338 0.8294635 -0.4210486 -0.29297695 0.65231 -0.0668475 0.29351604 0.020974837 -0.17642608 0.18045448 -0.60961115 -0.059505064 -0.37327582 0.1307308 -0.72041655 0.26090664 0.36776754 0.11709642 0.6786715 0.39261258 0.21920572 -0.51225364 -0.30648643 -0.6475432 -0.135848 -0.73654526 -0.43825868 -0.126877 -0.24004786 0.5600833 -0.053453162 -0.8557848 0.020696947 -0.11662396 0.12838934 -0.53291667 -0.34293777 0.6190954 -0.42674726 0.28481507 -0.12296205 0.10752408 -0.208695 -0.49649993 0.15804063 -0.54833335 0.16055262 -0.14613241 -0.39836553 -0.059217308 0.40439 0.43771335 -0.38378334 -0.13450769 0.516259 -0.073202536 -0.49013215 -0.022800036 0.21514904 0.16265352
672 0.9218424 0.7850015 -0.19867297 -0.38766673 0.15772669 0.8755316 -0.024156373 0.08288798 0.30483124 -0.14081042 0.17980428 0.35791036 -0.4804543 -0.0065209167 0.03761531 -0.042553745 0.2223286 -0.7265267 0.28292224 0.1712727 -0.09249336 -0.4728435 0.3082291 0.18599397 -0.28476697 -0.5154167 0.19565354 -0.14538348 -0.24327528 0.18654935 -0.52112734 0.1309457 0.24318458 0.1257633 0.58916134 -0.59103245 -0.33416754 -0.3768827 0.2860847 -0.1447469 0.34685212 0.1044659 -0.40591398 0.7473804 0.69751424 -0.11254981 -0.2104791 -0.11323466 1.0073607 -0.45714903 0.5303459 -0.16130812 -0.25138366 -0.1035696 0.103536025 0.16351941 0.03394734 -0.33600885 0.39460656 0.7317399 -0.62643003 -0.091328435 -0.1928025 -0.16459088
109 0.012209206 0.21670921 -0.2966278 -0.3799166 0.4558273 0.6381169 -0.7924491 0.3581183 1.0726436 -0.013740269 -0.017203359 1.134852 -0.8731198 0.1696751 0.09145081 -0.13395803 -0.097858794 -0.00033879493 -0.28619444 0.2904792 0.10012943 0.13965507 0.71143794 0.8176787 -0.47651908 -0.3262714 -0.3570056 -0.45054033 -0.30829388 -0.45396546 -0.9039361 0.2340216 -0.16952805 -0.19647028 1.0107226 -0.78434414 -0.24191621 -0.06279875 -0.38558316 -0.1567399 0.667643 -0.24151282 -0.7189514 0.53229374 0.28452194 0.077189416 -0.16702935 -0.414797 0.41556174 -0.19941223 0.25573248 -0.49360824 -0.38167074 0.39912674 0.17376535 0.50245106 -0.15539683 -0.35205647 0.28151715 0.45744625 -0.56280446 -0.038369592 0.25041628 -0.013154518
910 -0.6914418 0.25173265 0.22640687 0.39138088 -0.065531716 -0.12907572 -0.5043589 1.1630588 0.099346735 -0.16366313 0.23064074 0.02521852 0.1254638 0.045797523 0.49922144 -0.36156932 0.23880748 -1.1172923 -0.5467993 -0.34988475 -0.4325303 0.06569736 0.2172999 -0.06185684 -0.163872 -0.4457105 -0.028459327 -0.36522374 0.38085085 -0.34907374 -0.24861442 -0.5274811 0.07037601 -0.15146743 0.15489441 -0.04627552 -0.588835 -0.9505292 -0.576848 -0.31868833 0.3017433 0.3717664 -0.47587442 0.13768297 0.074149 0.47309774 0.23720844 -0.49594077 0.03305005 0.13749865 1.0839297 -0.4406334 -0.044105567 0.512997 0.21327677 -0.60547256 -0.060827397 0.40026557 -0.18675202 -0.0962005 0.17088091 -0.0040350934 -0.5680017 -0.16318373
136 0.493787 0.13567388 -0.046938583 -0.5141604 0.26601878 0.1519943 -0.34353137 -0.17078866 0.32682616 -0.20002657 -0.015713416 0.016680388 0.5035257 0.060704283 0.59275365 -0.5679144 0.2556838 -0.053457417 -0.60137475 0.33312827 0.34520313 -0.16356523 0.28279716 -0.2846454 0.17562626 -0.36488432 -0.61656326 -0.63368267 -1.1386415 -0.548573 -0.26026306 0.16216041 0.0757768 0.54042923 0.053844437 -0.13482876 -0.47673574 -0.15327512 0.25374398 0.08790195 0.09965768 0.59563833 -0.53201574 -0.43382052 -0.25525588 0.6298738 -0.12512873 -0.36497697 -0.2783459 0.13149244 0.8976036 -0.06818663 0.24892643 0.91683334 1.3474643 -0.20088589 0.25016826 -0.68004 -0.7261735 -0.21036266 -0.4681735 0.57121634 1.0512435 -0.37519124
14 0.20237184 0.58397406 -0.096286334 0.015547798 -0.3658274 0.6025619 1.0852948 -0.3973788 -0.10469069 0.8472967 1.0583556 -0.192287 0.03977697 -0.69497156 -0.54666287 0.20374663 0.7797264 0.18583418 0.90306216 0.92551494 -0.6896866 0.4551745 1.4171895 0.11538898 0.038361404 0.27711362 -0.24716672 -0.35398167 -0.2801518 0.47927582 -0.002976591 -0.517515 0.21464439 1.0870324 0.8299961 -0.64940256 -0.14431497 -0.260446 0.0147984065 -1.1135243 0.9823815 0.45176426 -0.63137877 0.12425179 0.0021433656 0.8442439 0.06496287 -0.574947 0.25311625 -0.038228694 0.34720135 0.8842397 0.26764864 0.18339494 0.7467149 0.50267464 0.41793382 0.21569501 0.16738765 -0.06790373 -0.1957677 0.1163852 0.25102624 -0.2601483
1328 0.43051022 0.21626653 0.47748557 -0.8035893 0.1992914 0.5668945 0.14779414 -0.7184851 0.15141653 0.25990686 0.25029093 -0.7332564 0.18658371 -0.32794878 0.5605363 -0.026463997 0.615779 -0.27501857 -0.24578676 -0.35314885 -0.38472903 0.21660922 0.9772266 -0.23308295 -0.21052687 -0.66397876 -0.035164848 -0.09999854 0.015050461 -0.77818537 -0.01637866 0.34970656 -0.40909347 -0.12658674 0.92963785 -0.39888215 -0.26253816 0.13911349 -0.13059479 -0.34003437 -0.17164893 0.3312561 -0.3598631 -0.25846854 0.034541994 0.70623887 -0.55720735 -0.58479637 -0.57979673 -0.9125057 0.23785274 0.11474137 0.76583576 0.35648158 0.42234558 0.35483256 -0.21502596 0.5757502 0.5538563 -0.40598392 -1.4535924 -0.07668419 -0.13414176 0.0792041
1527 0.22353679 0.57552207 -0.6220796 -0.010913565 0.85547614 1.0253799 0.20139855 -0.44385663 0.3160699 -0.2211746 0.20040342 0.20210047 -1.0955129 -0.629896 -0.13826717 -0.29146662 0.5004396 -0.42378563 -0.98086125 0.10403163 -0.4284305 0.119134575 0.6339081 -0.10592858 0.03300629 0.1875018 -0.29633373 -0.54334176 0.28563443 0.85334086 0.70753026 -0.12978686 -0.732888 -0.45363182 -0.3035554 0.17022905 -0.22121623 -0.464383 0.4899492 0.28537956 -0.5951559 0.48254678 -0.44121966 0.00095433014 -0.32666343 0.01885433 0.861851 -0.60267335 -0.6360067 -0.23936987 0.119120464 0.8780635 0.036924586 0.3887818 0.5206363 1.3580916 0.031330664 0.1911538 -0.23551555 -0.7010693 0.17281598 0.209433 -0.33489653 -0.55414885
570 -0.54051894 0.97465014 0.38856134 -0.0054973797 0.56890863 0.6571514 -1.233268 0.3316854 -0.46819937 0.05539081 0.40139756 -0.22101492 -0.78451174 -0.45572075 0.3913972 -0.1320267 0.18405452 -0.8766201 -0.074455604 0.17978767 -0.09042589 0.16806467 -0.17317791 -0.095850326 1.9611075 -1.2557305 0.35847923 -0.49189502 -0.22227249 0.6214903 0.28682354 0.5193198 0.91601044 0.10695387 -0.099580586 0.865261 0.38970277 0.091664515 -1.1502954 -0.18257414 1.6246362 -0.44573385 -0.56580323 0.15640962 -0.025837362 -0.31396103 0.23211841 -1.1135608 0.4198465 -0.24104913 0.13353837 0.46760884 0.15564413 0.7904196 0.9369769 0.658635 0.5032095 0.67397 0.46026078 -1.4886239 -0.5161964 0.50113684 0.62351084 0.3080809
1240 -0.42334408 0.07814275 -1.5407722 -0.21362501 -0.13471334 1.0712637 -0.6573143 -0.5244879 -0.32865408 0.4886502 0.3023387 0.50899225 -0.6041891 -0.37002704 -0.23855211 0.059485804 0.64216083 -0.81179637 -0.15254307 -0.2412725 -0.2492211 -0.69202244 0.17022426 -0.029879631 -0.21053381 -0.18552531 -0.090593986 -0.19332218 0.18080968 0.5666989 0.40310553 -0.54883176 -0.5357328 -0.50817007 -0.3079269 -0.09052761 0.18923056 -0.8032917 -0.17555113 0.025835995 0.030049263 0.1477002 -0.6522857 -0.5795884 -0.36514267 0.8000124 0.3839339 -0.5552243 0.12067077 -0.8186767 -0.57172626 0.5332378 0.2621879 0.62697977 -0.091741554 0.99370086 -0.013180073 -0.12559819 -0.2570659 -0.50788146 -0.28363687 0.27188691 -0.10233112 -0.072122455
591 0.67772144 0.52018994 -0.3474397 -0.7119871 0.42203638 0.5765361 0.33447137 0.054595534 1.2003107 -0.15763195 -0.40718234 0.20947719 -0.55124485 0.39830562 -0.26027235 -0.36894384 -0.07607019 -0.0571127 -0.37965283 -0.09132925 -0.5076898 -0.5251467 0.3906802 0.41068485 0.10543905 -0.64443153 0.39659333 -0.18562905 -0.23073548 0.3421857 -0.76689845 -0.11764345 -0.32428515 0.09064044 0.49194252 -0.46240413 -0.26576665 -0.22297797 0.21988098 -0.107415594 1.0648776 -0.18406002 -1.0569161 0.47625104 0.4649952 -0.65413666 -0.5285405 -0.37869725 -0.058017872 -0.26990747 -0.166634 -0.5082649 -0.56433195 0.005319113 -0.17758423 0.35734463 0.038754657 0.011982527 0.4276138 0.42418057 -0.65223104 0.31001696 -0.050377995 -0.28272346
569 0.19278874 0.3995061 -0.527775 -0.57642066 0.17247315 0.61488855 0.0005276095 0.17476523 0.007449891 -0.22158258 -0.4259916 0.18038972 -0.3962142 -0.32740945 -0.3049996 -0.27183574 0.045399543 0.66831493 0.20338291 -0.56674707 -0.76097643 -0.8313553 0.25530624 -0.26359054 0.07401167 -0.59380406 0.6774319 -0.20604317 0.030108405 -0.2133828 -0.34716803 0.4725608 -0.85117275 0.5700398 0.4842014 -0.21467355 0.33243024 -0.6261395 0.2286905 -0.9313657 -0.008299081 0.8887596 -0.75335145 0.1025744 0.67388713 0.11358056 0.13087994 -0.13724786 -0.10173057 -0.15122738 -0.08773 -0.045686718 -0.60607404 1.1187469 -0.26357788 -0.18462135 0.31889215 -0.14585383 0.3696541 0.01174528 -0.7191974 0.5575222 0.4269524 -0.13337937
1290 -0.0040401523 0.27309582 -0.0056002894 -0.9561617 -0.62503207 0.57568383 -0.0057415743 -0.8109816 0.5355895 0.25265267 -0.13551092 0.09894459 -0.3180651 -0.83157146 0.38224977 -0.1833706 0.42421755 0.4102674 -0.35872608 -0.27555284 -0.7430521 -0.5957634 -0.49034992 -0.39414582 0.08162056 -0.3167488 0.33219704 -0.09705564 0.50080377 -0.42240882 -0.11347914 -0.07901347 0.22815879 -0.50708735 0.21748562 0.050135456 0.021690954 -0.64144015 0.06287182 0.11491099 0.32442692 0.9165529 -0.6932614 0.24068443 -0.12113856 -0.19595751 -0.029414179 -0.2072644 0.02415947 0.28870514 0.5904788 0.43224776 0.4469214 0.2328827 0.119041756 0.20783187 0.27239823 -0.21752167 0.08452664 0.43699497 -0.46011797 -0.027831277 0.5724926 -0.39482638
66 -0.24369551 -0.23235133 0.7054144 -0.36660463 -0.11915261 0.6974737 -0.8531053 0.017021013 1.0614737 -1.0541658 0.6881564 -0.32317993 -0.55065686 0.3626131 -0.012654379 -0.46455196 0.31487617 -0.5083534 -0.07362077 -0.7100018 -0.5616023 0.11885696 0.35510543 -0.56207997 -0.29577696 0.14120746 -0.2081115 -0.71764624 0.30659056 0.086365536 -0.37369776 0.0149284005 -0.059203047 0.39432675 0.04439855 0.79492205 -0.99797493 -0.13684663 -0.22450924 0.3039741 -0.32740346 0.10207417 0.19839516 0.30726796 -0.59018743 -0.45179862 -0.2841198 -0.15631019 -0.0053911405 -1.1543344 -0.015750902 0.4295716 0.39398894 -0.010829426 -0.26475003 0.4665322 0.061439577 -0.084190615 -0.6422979 -0.015735224 -0.632867 -0.23108724 0.13304633 0.5468739
1569 -0.8804593 -0.28655073 0.9804277 -0.30674237 -0.9662592 -0.2108091 -0.18740165 -0.7398312 0.5611006 -0.47680312 -0.06953756 0.32351908 -0.22845685 0.82583475 -0.2652797 0.19214578 -0.6609831 -0.0069653112 -1.0783104 0.9052272 -0.11946914 -0.051027432 1.0537276 -0.033990838 0.2721297 -0.22719118 -0.1912303 0.3038296 -0.19908854 -0.19287418 0.25407144 0.46579653 0.09149448 0.17446893 0.4452703 -0.7460165 -0.7251253 -0.40712893 -0.08373517 -0.11639544 -0.39326718 0.7496876 -0.8784387 0.16611597 -0.11047811 0.3392391 0.32088602 -1.4641379 0.20061171 -1.0334847 0.17456202 -0.551468 0.40743762 0.22323655 -0.12856375 0.0027184847 0.6246074 -0.18230899 -0.21012661 -0.543223 -0.45209476 1.0743463 0.6416145 0.37667486
250 -0.41001374 -0.43959072 -0.5031533 0.02273294 -0.33919185 0.9948926 0.39618585 -0.43230706 -0.6268956 0.23078114 0.5948653 0.2988013 0.07684513 -0.76887125 -0.9368738 0.11033409 1.0871896 -0.4662869 0.15252884 0.5055244 0.28371626 0.004732011 0.1001791 0.25849828 0.61191016 0.40589413 -0.0056708436 -0.21686454 -0.21699823 0.49651006 -0.14031252 0.1699063 0.62463695 1.0486436 -0.022872685 -0.32213867 -0.60251 -0.34077236 -0.42590615 -0.92367655 0.2787567 -0.005280561 -0.31094408 0.19705246 0.5666678 0.04971367 -0.19162242 -0.5955916 -0.7403645 -0.26834825 -0.34124985 -0.17194839 -0.3789767 0.2519614 0.11285306 -0.21954991 0.85058177 0.040850315 -0.29430237 -0.3919452 -0.51049227 0.30070198 0.48781103 -0.6038724
1520 -0.5924466 0.7256144 0.61573994 -0.25441793 0.5830276 0.9769704 -0.90437484 0.48373923 -0.31741935 0.26299253 0.80710924 -0.2672139 -0.8990408 -0.57857406 0.14006057 -0.14252166 0.1385643 -0.66308606 -0.22289945 0.062190782 -0.3241596 0.07027234 -0.2621253 -0.45186874 1.9584687 -1.115962 0.037166443 0.09047452 -0.5417194 0.09692737 -0.21364838 0.049992144 1.4504228 0.24842727 -0.375524 1.1385931 0.6319623 0.06449443 -1.1958414 -0.3480707 1.7547178 -0.47760966 -0.41856402 -0.060719203 -0.1592788 -0.019474046 0.06967684 -0.92214423 0.020658959 -0.45332113 -0.19433789 0.12290226 0.6890202 0.92523843 0.53290457 0.62372875 0.32962614 0.69078475 0.7474474 -1.385458 -0.6682408 0.4751016 0.5201171 0.30627525
1136 -0.07179993 0.025884843 -0.4929873 -0.41296273 -0.4683787 0.44085166 0.2386309 0.5592703 -0.23642641 -0.5540637 0.24262753 0.70890784 -0.25605464 -0.07665874 -0.5174267 0.011434301 0.011075719 0.34451768 -0.6091946 0.2205291 0.11961994 0.47209167 -0.19728649 -0.34991217 -0.056652736 -1.0912567 0.46688703 0.040056672 0.34946534 -0.53262484 0.024616225 -0.3771165 -0.16852237 0.03843364 -0.35192952 0.12755352 -0.1266262 -0.369718 -0.1889271 -0.07227752 0.46900347 0.06438555 0.09444138 0.18034178 0.6196606 -0.041396916 0.6604645 -1.009357 0.40049428 0.48829916 0.999717 -0.13627179 1.2904067 0.47544459 -0.15629458 0.45044369 -0.4266778 0.25915825 -0.36998686 0.25232697 -0.32904896 0.7219657 -0.14278525 0.004258998
76 -0.4023764 -0.4201535 -0.014834363 0.32762182 -0.19605632 0.9173702 -0.13522418 -0.7585403 -0.274669 0.31606933 0.44328448 0.7135369 0.19231462 -0.3617427 -0.8701092 0.076517925 0.88631207 0.012491918 0.12583114 -0.9153428 -0.007933304 0.7110164 0.10336182 -0.5982177 0.37015304 0.08243895 -0.7211152 -0.1308863 0.3396511 0.7124387 0.092071764 -0.4149993 0.39321917 0.52016276 -0.2948021 -0.34454635 0.124931164 -0.25285438 0.004060674 -0.11846237 0.39995247 -0.039293937 -0.898326 -0.17752407 0.6162213 0.09997832 0.06644911 -0.5260536 0.10843937 -0.17682907 0.17687811 -0.6089453 0.06964852 0.30240235 0.09703199 0.116156615 1.3115513 -0.3821074 0.06724895 0.3789464 -0.79600865 0.042249717 0.46104538 -0.69425184
1459 -0.18324588 0.22414029 0.15964133 -0.47137284 0.6744186 0.3185294 0.52269864 0.5940621 0.232607 -0.72593945 -0.16817164 0.50473917 -0.4443044 -0.111952044 -0.6680406 -0.23536341 0.3767856 -0.103349864 -0.5079857 -0.6031515 -0.46005413 0.52694345 0.10605403 -0.10522059 0.037365787 -0.1529239 -0.059491187 -0.30530313 -0.55724645 0.36207667 0.17867047 -0.8187306 0.30250573 -0.45054784 -0.09392401 -0.3489979 -0.8658459 -0.64177376 0.1607537 0.31706962 0.38139373 0.2673347 0.08780562 0.50576705 -0.31136864 0.49305588 0.313794 -0.023143953 -0.3700201 0.11603999 -0.007947167 -0.01646016 -0.17281976 -0.068593904 0.07703105 0.05159127 0.24919477 -0.21711701 -0.41356736 -0.99481726 -0.5881185 0.23180307 0.19096644 -0.86486244
188 -0.21849027 0.23293327 -0.2433023 0.7442849 -0.4479445 -0.025592996 0.060192525 0.5086636 0.3521469 -0.081327185 -0.40767547 0.39440554 -0.19009413 -0.08815445 -0.5731429 0.31684822 0.67588514 -0.27615333 -0.6480378 0.3443031 0.1837973 0.28932402 -0.07650415 -0.12379443 -0.581166 -0.44424853 -0.03554935 -0.4182797 -0.14336014 -0.20149058 -0.5623112 -0.08994127 -0.04079241 0.7787383 -0.12466605 0.11247488 -0.77362067 -0.6463475 -0.50546443 0.14197333 0.31017095 0.5451279 0.3080687 -0.34574947 0.25377482 0.23966108 0.21951598 -0.10705653 -0.06840098 0.049099095 0.6719428 0.07689648 0.44630814 -0.19493683 0.117661804 0.15579034 0.100793235 1.0550768 0.16959529 0.124029 -0.041711383 0.49443844 -0.57009995 0.40971133
1153 0.6794718 0.31127045 -0.28332776 -0.39488453 0.29390663 0.4705562 0.09732216 0.8420305 -0.468396 -0.642987 0.4903505 0.49398845 -0.54898125 -0.122522496 -0.9626604 0.51704484 0.43914744 0.4032457 -0.5507565 0.24612127 0.27742788 0.5385504 -0.18172188 0.14290531 -0.06593279 -0.26095095 -0.10061945 -0.27395797 0.643485 -0.59803665 0.08886023 0.3462407 -0.06350278 0.66936356 0.05190409 0.2614994 0.26556072 -0.51561826 -0.2544843 0.025881222 0.3606905 0.17238913 -0.3405913 -0.14406137 0.47054005 -0.10375964 0.58315593 -0.6175528 0.23441458 -0.1754167 0.9991062 -0.62892634 0.4795807 0.0344889 -0.04988591 -0.17758755 -0.0621761 0.46536928 -0.43128 -0.2307945 -0.43683907 0.7413869 -0.49275473 0.22816817
478 -0.17688218 0.27718398 -0.6026972 -0.2397152 -0.19019508 -0.07050842 0.016366541 -0.08443228 0.13090254 -0.58620584 0.53054404 -0.402899 0.19434638 0.04783378 0.6616692 -0.005756154 0.21114409 -0.024344966 -0.7660344 -0.48542655 0.17802258 0.034867454 0.3037486 -0.58071387 0.4574473 -0.4226733 0.081863545 -0.8280246 0.37008134 -0.20750915 -0.45221335 -0.30897406 -0.02787528 0.19297077 -0.24759096 0.37983805 -1.0120072 -0.17302364 -0.041539032 -0.06683015 -0.6483832 0.42754486 -0.27907097 0.36531454 -0.20563963 -0.021552026 -0.20834377 -0.036928456 -0.35752538 -0.23915263 0.39967695 -0.27655816 -0.19593038 0.27833375 0.76950556 0.27769682 0.35199705 0.09937878 -0.22723736 0.40944862 -0.48172998 0.04849267 0.3927199 -0.32702905
2499 -1.023384 1.3444669 -0.072164856 -0.1351987 0.71096194 0.7185223 -0.0765179 0.10749818 0.41852406 0.20965098 -0.8166087 0.019815689 -0.43098617 0.6544004 -0.019638626 -0.4275358 -0.44274613 -0.12212066 0.33956748 0.82512 0.93322647 0.21879876 -0.5833653 -0.833304 0.7882725 0.35895976 -0.23557991 -0.46859503 0.30374864 -0.024895355 -0.5354975 0.24812426 0.24939153 0.48000994 0.1468941 -0.7590355 -0.44457576 -0.48029816 -0.5492022 -0.6790532 1.1695563 -0.43613788 -0.74596107 -0.7950239 -0.59790367 -0.5257533 -0.14334844 -0.5059506 0.34310314 0.24552915 0.5548162 0.0025885822 0.2859759 -0.5835096 1.3176336 0.54808885 0.1921273 0.51644593 0.04845948 -0.41499183 -0.7215615 -0.1770143 -0.38191083 -1.2325819
41 0.21632078 -1.034452 0.33801013 -0.2500251 0.46014953 0.288498 0.08980056 1.1062992 0.51626396 -0.23096177 0.5820369 0.61675024 -0.26867667 -0.66241556 0.5034079 1.6459302 0.55903095 -0.33160174 0.7028367 0.77004904 0.46602452 -0.6140377 0.07038033 -0.6178823 0.08117483 0.58946234 -0.74267584 0.07728962 -0.2240932 0.15116112 0.2512177 -0.015814513 -0.6959692 -1.0927838 -0.06132997 -0.6980962 0.47367105 -1.0436782 0.56504875 -0.51707673 0.75053924 0.80824244 0.26803696 -0.31934306 -1.4052441 -0.20775071 0.3095314 -1.0957055 -0.21164036 -0.2948179 0.35115063 -0.15375744 0.044919305 0.240241 -0.14647487 0.8148638 0.53637177 0.5498794 0.7869837 -0.20950386 -1.7902236 0.4453844 -0.2916961 -0.75082517
1713 -0.57340086 -0.15906873 0.6237665 -0.12990154 0.7337236 -0.19117886 0.120729715 0.9940322 0.25577843 -0.4569894 0.5840767 0.2707996 -0.6139949 -0.2547549 0.4398113 1.332068 -0.07237941 0.12897778 0.88937074 0.58389676 -0.74021167 0.07599904 -0.055145115 -0.34883475 0.08839805 0.14903006 -0.64967066 0.21835901 -0.16779542 0.2036934 0.26261935 -0.18472938 -0.6387339 -0.3620745 -0.29826385 -0.66873044 -0.040595196 -0.6957234 0.39424536 -0.41676062 0.9569374 0.92471397 0.017511392 -0.71539265 -0.9009678 -0.033245374 0.39664042 -1.5087818 -0.42115614 -0.044264995 -0.442879 -0.23129657 -0.12538613 0.7294647 0.16432436 0.83195144 0.8051678 0.8745875 0.24046019 0.47911397 -1.9427778 0.07983386 -0.03918389 -1.8393688
426 -0.910158 -0.16157874 0.2300105 -0.69300914 -0.5050243 -0.33097333 -0.1652393 -0.5096689 1.3824466 -0.07353847 0.6896028 0.4810779 -0.69317275 0.21916515 0.3542893 -0.17420925 0.23468779 -0.35813463 -0.48313376 0.7094941 -0.38702592 -0.15804157 -0.34488338 -0.6039492 0.5161743 -0.65167725 0.26365492 -0.62015426 -0.024503209 -0.6311074 0.185385 0.40547645 -0.35074326 0.29343113 0.45767465 0.12867945 0.18314992 -0.50348705 0.036338832 -0.22173941 -0.3892761 0.8574129 -0.22780623 0.42588785 -0.17951961 0.49113303 -0.13084923 -0.68711853 0.10230277 0.104399405 -0.01990186 -0.25201285 0.5174008 -0.31063846 0.8324209 0.2019873 0.6860812 -0.034626104 -0.29239136 0.73297095 -0.3652615 0.48269293 0.24305737 0.03813242
686 -0.5909525 -0.31847107 0.35310477 -0.5636672 0.18474087 0.42490825 -0.1434392 -0.70697427 0.4261759 -0.55498743 0.38752457 -0.026185038 -0.12681916 0.34207514 -0.67356443 0.39840904 -0.1862444 -0.23578215 -0.46212685 -0.038697187 0.14340188 -0.4835845 0.5834308 -0.03608812 0.21316932 -0.84299797 -0.06187372 -0.31038076 0.6362978 -0.3554302 -0.89007485 -0.13527112 -0.14885119 0.57994825 0.2761134 -0.38149858 0.339642 -0.43358505 0.058806278 -0.6750318 -0.34087816 1.1068618 -0.034139507 0.1931516 -0.050718192 0.111937076 -0.8438615 -0.56418496 0.50606894 -0.7138249 0.1027108 -0.23495774 0.37966254 0.45088 0.158573 0.38787878 -0.39029786 -0.05617364 0.0019013484 -0.33587283 -0.27904144 -0.038425956 -0.074041344 0.58291495
415 0.063384734 0.28101796 -0.32967073 0.27278647 -0.2981446 -0.1523921 0.29159692 1.134801 0.26410156 -0.09942866 -0.5610434 0.2906352 -0.38643983 0.06266595 0.11656743 -0.1173215 0.3482787 0.151143 -0.3939011 -0.07637209 -0.013497288 0.49880826 0.10229891 0.080946654 -0.5995652 -0.8859738 -0.12193495 -0.16563407 0.28864306 -0.14770792 -0.55758107 -0.18269388 -0.1116253 1.1672237 -1.1253502 -0.039771955 -0.36355013 -1.0496285 -0.6212037 0.23594126 0.035237107 0.1938138 0.4359029 -0.3808515 0.2729111 0.4185234 -0.038219772 -0.6064768 -0.3246587 0.11823814 0.7921932 0.30303878 -0.2265904 0.07487872 0.17324457 0.11808801 0.20053354 0.67664856 0.16870461 0.09710724 -0.46441078 0.34120607 -0.1445953 0.09799818
2153 -0.9252841 0.14743596 0.30417842 -0.027076816 0.47476906 -0.03575381 0.41245997 0.8857655 -0.00028831276 -0.65563333 0.3733981 0.481816 -0.5978601 -0.3509994 0.5869915 1.4135381 -0.09177868 1.0311172 1.0666456 0.51860595 -0.9399278 -0.5124608 0.6650941 -0.3102542 0.36062413 -0.30472994 -0.70552415 0.26141956 0.14006327 0.12814678 0.20299636 -0.04373757 -0.6499593 -0.22053142 -0.12165761 -0.49313837 -0.46690345 -0.23791979 0.37070978 0.15571962 1.2797464 0.6449411 0.10066886 -0.78283083 -0.6976934 0.1846343 0.40339312 -1.2466346 -0.24844556 -0.17529291 -0.051963903 0.21088327 0.1583345 0.6596908 -0.23273952 0.72070986 0.7453438 1.1935478 0.25668496 0.22556536 -1.8844528 0.51168746 0.3586347 -1.828372
1178 -0.60641867 0.2538688 0.015801853 0.23677918 -0.10244591 0.34526718 0.16058312 0.86514884 -0.15366991 -0.38012776 -0.25133374 0.51620513 -0.07901579 -0.8542139 0.24871948 -0.36438704 0.009761007 0.65876657 0.035817835 0.3474766 0.0884364 0.10661635 0.5299228 0.20525157 -0.81423575 -0.7660862 0.02581154 0.4476757 -0.45950627 -0.55493087 0.27370116 -0.42267418 0.0019852119 1.2120636 -0.9149346 0.5213914 -0.16404188 -0.45555818 0.2401764 -0.29426846 0.2292651 0.48862436 -0.3453466 0.5231151 -0.14535959 0.0899444 -0.24313414 -0.74663883 -0.1534382 -0.30431393 0.7080493 -0.21771085 -0.14294994 -0.31983674 0.17466469 0.115219064 -0.010847568 0.6853446 -0.10335177 -0.15113862 -1.0996401 1.0236526 -0.6731292 -0.14092106
129 0.32423767 0.34767506 0.66790444 0.14771767 -0.012074145 -0.018732492 -0.10380042 0.4826393 0.24501154 -0.178211 -0.3945928 -0.015896639 -1.0459535 -0.51667947 -0.46262795 0.55964005 0.6397143 0.35647863 -0.015342452 -0.09141172 0.03848881 0.17824188 -0.057036 -0.0015659605 -0.20364544 0.099048615 0.4671839 -0.4528636 0.41503653 -0.35469234 -0.29760513 -0.16374934 0.1180623 0.47344425 0.06958201 0.17443831 -0.52079785 -0.7393738 -0.5576728 -0.019255366 0.40978396 0.22819598 0.32210866 -0.21738541 0.18964386 0.57628953 0.05295308 -0.82900625 -0.29223904 0.1914886 0.98334235 -0.40411252 0.15814711 -0.09432908 -0.2930365 0.036363572 0.4781381 0.5244232 -0.7242804 -0.19745545 0.2131852 0.40068802 -0.48610643 0.44288072
359 -0.9174216 1.1515272 0.2626942 -0.17999312 0.7477437 0.5605134 -0.1596223 0.07188238 0.6048858 0.3587607 -0.60664123 0.115619496 -0.36274588 0.4770789 0.26376268 -0.68653595 -0.52735144 -0.14691836 0.20990047 0.4921984 0.75996226 0.04107004 -0.73966914 -0.8521508 0.730535 0.034939766 -0.4216797 -0.16301411 0.6208962 -0.008004781 -0.39189717 0.25941882 0.13561164 0.5616647 -0.20004323 -0.6989132 -0.72390914 -0.48312587 -0.8578529 -0.77575934 1.141626 -0.27053565 -0.6151852 -0.942355 -0.696195 -0.5932223 -0.14798985 -0.22592536 0.16003099 0.12752658 0.4765084 0.47653535 0.13512073 -0.12052541 1.2974846 0.44829854 0.08970375 0.53811324 0.43956625 -0.2320311 -0.9456386 -0.6123343 -0.5837673 -1.4396584
640 0.17801006 0.6432974 -0.22113612 -0.712795 0.56275517 0.7261155 -0.24467482 0.073083654 0.857371 -0.21906531 -0.14188664 0.3431329 -0.72583085 -0.22598442 -0.4652451 -0.16518515 -0.383926 0.029911906 -0.008474786 0.2994763 -0.2924317 -0.2832711 0.8548811 0.47745767 -0.30445948 -0.7275691 0.0058180527 -0.23471586 -0.2741768 0.22319128 -0.86680645 -0.26072767 -0.23036753 0.462206 0.32711697 -0.7715551 -0.57269114 -0.10400459 0.07263147 -0.14026521 0.63301504 -0.07030172 -1.1487751 0.93305933 0.21674064 -0.27524322 -0.50964355 -0.28301826 -0.06404759 -0.9661043 0.10203762 -0.20749739 -0.37282357 -0.25630465 -0.08000087 0.59370756 -0.3681666 -0.20445581 0.49014565 0.5997032 -0.4716074 -0.27495882 0.06399554 -0.065731145
519 0.11822189 -0.20431106 -0.12987788 0.35642567 0.14981143 0.8347273 0.8429571 0.64073306 0.04908169 0.6205604 0.13357037 0.6349742 -0.27435005 -0.4239553 -0.5996026 0.33131906 -0.11492093 -0.73606324 0.5024287 0.21320127 0.34271225 -0.78028274 -0.0027305784 -0.0074463678 1.097501 -0.16388325 0.27555382 0.15708974 0.20729733 -0.24942352 -0.52593213 0.2629198 0.6000935 0.054410696 -0.07585601 -0.4003491 -0.18436818 0.87888116 0.18009758 1.0555224 0.12803909 0.1382182 0.7525764 -0.23858419 -0.28938404 -0.0050431313 0.5083607 -0.35543403 -0.4870922 -0.8618797 1.2110505 -0.23358208 0.6266739 1.8525352 0.18161371 1.8200516 0.7660879 -0.48558143 -0.2307983 -0.35083184 -2.1825004 0.1702357 -0.6510341 0.14717463
881 0.26779902 0.6839352 0.16090125 0.22382717 -0.16311575 0.50132525 -0.3513204 -0.2250106 0.47635084 0.6332191 -0.108548954 0.616998 0.2906761 -0.16424376 -1.050779 0.4602897 0.28375983 -0.25692335 -0.09606506 0.6273764 0.023144333 -0.46423814 0.4538777 -0.6866108 0.18652803 -0.19476937 0.20839185 -0.2545777 1.168467 0.17156208 0.16254908 0.021692375 -0.05106604 0.0218489 -0.26284832 0.5652573 -0.31853688 0.1925271 -0.33117142 0.11669115 0.29080787 0.099319644 -0.32434118 -1.0618943 -0.6941775 0.24756072 -0.52318156 -0.2414049 0.2363558 -0.23805292 0.6082853 -0.22581199 0.28141248 0.9312233 0.35151908 -0.7250859 0.04739356 0.11887368 -0.037007 -0.36548227 -0.8766755 -0.026568327 -0.29163155 -0.39590275
967 -0.11781118 0.13010323 0.23851141 -0.14272352 0.42407784 0.56225896 0.21328166 0.09691061 0.70178884 0.30984697 -0.6218427 0.47553128 -0.44104147 0.13561857 -0.1626388 0.28206918 0.10337088 0.28165632 -0.8177168 -0.33892366 -0.822046 0.3423205 0.2192221 0.49605024 -1.133198 -0.29609907 0.18412861 -0.52737737 -0.41569155 0.50996214 -0.39259768 -0.12119064 0.2576548 -0.2053232 0.70843095 -0.84547496 -0.5358924 -0.4491357 -0.15497854 -0.381118 0.40470487 0.21282709 -0.30958977 -0.0914712 -0.47408012 0.39935446 -0.6427728 -0.41763556 0.8652221 0.72810256 -0.3244084 -0.6686411 -0.4367694 0.8490396 0.3869215 0.1484397 -0.2823973 0.06526531 0.14562456 -0.33344305 -0.5935763 0.62310237 -0.2076479 0.29413742
342 0.3963121 0.41781363 -0.097354405 0.01553579 -0.4070728 0.1245971 -0.93012303 0.54173136 0.8082094 -1.0557315 1.007611 1.008868 -1.3605378 -0.061119996 -0.35093573 0.5332553 0.90182394 -0.60621834 -0.9724443 -0.5461507 0.25744104 0.12670948 -0.04744708 0.027162118 0.5176272 -0.31704634 -0.15035717 0.24729519 1.428983 1.1738018 0.4782489 -0.57565963 -0.4628636 0.77207583 0.8572598 -0.69828653 -0.47583923 -0.6531146 1.6098574 0.07359634 -0.15172508 -0.3838917 -0.32919666 -1.2581489 -0.42657974 -0.6432678 0.6924926 -1.1513996 0.30470788 -0.10725922 0.50250006 0.46786082 -0.6689987 0.40165737 0.51908183 1.305171 -0.3265946 0.6672336 0.052249964 -0.36670917 0.15273999 0.5656117 1.0542125 -0.7546331
84 -0.33409753 -0.285485 -0.88523644 -0.3817674 -0.034466323 1.1237949 -1.004692 -0.65049547 -0.28318104 0.8029528 1.2146202 0.40023184 -0.5831652 -0.06344722 0.17891854 -0.053826567 0.92042893 -0.8594792 -0.12363147 -0.39417762 -0.7324427 -0.9892266 0.5567832 0.17267294 0.25303033 0.16516127 0.44778365 -0.48688334 0.14618184 0.21089238 0.79285276 -0.250037 -0.6342473 -0.6675603 0.18115275 -0.022716079 0.37611324 -1.6386046 -0.75873303 0.10256572 0.4215547 0.32298774 -0.7669168 -0.9169121 -0.93173367 0.6087147 0.3937403 -0.24204843 -0.485424 -0.29241803 -0.41069558 -0.21026829 0.28550142 0.08699128 -0.17824723 1.1050102 0.17949861 -0.20107804 -0.008190255 -0.23955846 -0.57129073 0.12888782 -0.7283188 -0.8043452
2421 -0.55663955 0.35150865 -0.21473017 0.31541145 0.8621922 0.27745134 -0.355191 -0.17941685 0.5219509 0.5514051 0.42798474 0.56981796 0.4657416 -0.22438191 0.31704313 0.49662778 0.3997271 -0.019562928 0.48134786 -0.13049906 -0.44146416 0.011361671 0.38951746 -0.82856566 0.12253507 -0.7291485 -0.0021528376 0.55833256 0.39043084 0.62476826 1.0835465 0.47844467 -0.10970378 0.32167655 0.22047028 -0.95393723 -0.6134274 0.36136177 0.4780374 0.622958 0.7514847 0.093187936 0.15149428 -0.43190074 -0.67739975 -0.20766245 -0.23458691 -0.69337296 -0.558996 -0.27571493 0.55203956 0.08902265 0.34115326 1.5626687 -0.52106744 0.62838835 0.777158 -0.6434989 -0.15215136 0.8642591 -0.9888081 0.51998305 -0.40765485 -0.36789775
809 -0.53345656 0.19160777 -1.1005574 -0.22292158 0.59345627 0.50023854 0.10796186 -0.4767435 -0.018650154 -0.6855303 -0.3096279 0.29106545 -1.932574 0.29038274 -0.13377301 0.7190085 0.4006218 -0.8340406 0.10177885 -0.3310428 -0.04148274 -0.857577 -0.021497535 -0.89159405 -0.2518102 -1.0173688 -0.73849 1.4939435 -1.0615813 -0.8362466 0.5445866 -0.27831897 0.34205043 0.3869799 -0.3586665 -0.13177732 -1.2531333 -0.3462934 0.25038245 -0.98000604 -0.096795306 0.34631115 -0.110223584 -1.1610818 -0.4231629 -1.1913195 -0.041009046 -1.5374357 0.13557872 -0.6735287 1.503684 -0.86666656 0.3193587 -0.27790928 0.0017814146 -0.4687647 1.0705951 0.012107887 0.75294805 -1.1984862 0.24098223 -0.23998158 0.7414485 -0.5165835
438 0.18917863 0.5666177 0.06794094 -0.6297429 -0.002137078 0.5445182 0.83821815 0.10141566 -0.19335748 -0.038792975 0.44169292 -0.65510637 0.034499582 -0.040351387 0.5535535 0.018649846 0.041297548 0.11199064 0.1834692 -0.33665305 0.11127594 -0.34135956 0.025256116 -0.75169843 -0.700203 -0.15215293 0.5240372 -0.24535955 0.7730748 0.2200226 -0.53988194 -0.14962994 -0.014822498 0.50615656 0.7583631 -0.014571065 -0.6017801 -0.5773799 -0.7708224 -0.32820305 -0.6873281 0.8291307 -0.26077676 0.23353441 0.13741346 -0.040120855 -0.6666359 -0.5072418 -0.024576021 -0.26478085 -0.19565141 0.16945793 -0.04379684 0.8254081 0.6318221 -0.2825574 0.5113737 0.11921617 0.21717685 -0.07818701 -0.47991043 1.0960714 0.87761354 -0.38718033
1484 0.16865984 -0.033940263 -0.63052046 -1.2702256 0.2139857 0.60669976 -0.03146862 0.35247543 0.6359939 0.039334502 -0.8469621 0.25511724 0.20553268 -0.5252567 -0.65929526 -0.48581028 0.14081314 0.57345307 0.16298561 -0.6141991 -0.9108697 -0.67560315 0.387139 -0.22960465 0.14979522 -0.53776413 0.08136719 -0.23713817 0.21640381 -0.39157566 -0.15912111 0.7094825 0.10717091 0.23077661 0.004710227 -0.26349175 0.4953822 -0.37311992 -0.0877479 -0.5053372 0.011357938 1.2533864 -0.5945788 0.71449596 -0.24708992 -0.0218487 0.33329523 -1.4586172 -0.34537593 0.49485332 -0.0026333185 0.35365668 0.13227718 0.9473862 -0.9350795 0.023501424 0.7746007 0.0023833339 0.20665532 -0.4649661 -0.4974541 0.07127749 0.3699027 0.46681643
738 -0.37203592 -0.24144122 -0.5839766 -0.46735206 0.3365798 -0.060312383 0.42072383 0.6178002 0.51911366 -0.5426322 0.19107664 -0.37120667 -0.50476056 -0.24497157 -0.41796294 0.737313 0.08600242 -0.41048953 -0.59751254 -0.42835236 -0.24272837 0.5124753 0.5867529 -0.17008258 -0.17947121 -0.881106 0.060052104 0.034263704 -0.28209844 0.42251617 -0.28581417 -0.556726 0.14586186 0.31360105 0.33693907 -0.2058904 0.06940002 -0.8628411 -0.49009392 0.08227778 0.21687865 0.30741328 -0.6819174 0.14779428 -1.1562588 0.28792173 -0.014060761 0.52870125 -0.044562068 0.47411725 0.2371622 0.11579152 0.01166482 0.16929136 0.29792774 0.024793033 0.4278281 -0.5091962 -0.26720154 -0.7795604 -0.7640371 0.14782722 0.35973877 -0.5142435
2175 0.32938474 -0.21214126 -0.2860858 0.24546151 -0.59441113 0.48360455 -0.44192588 0.3187098 0.07022137 0.0013853482 0.13016865 -0.049125843 -0.15859967 -0.8101192 -0.10981394 -0.16302194 0.013415545 0.008533443 -0.53822905 -0.14745663 0.053603586 0.2744449 -0.01331572 0.29991943 -0.07015945 -0.44672585 -0.27321598 0.3487603 0.13738579 -0.011497866 -0.22087878 -0.22491021 0.8237639 0.8865811 0.12071556 0.4299744 -0.49198565 0.06969776 -0.12023407 0.097204834 0.4006781 0.9392026 -0.089735925 -0.016840309 0.05152415 -0.02894368 0.2910768 -0.7770856 0.46668294 0.05806517 0.6669404 -0.23036012 0.25211608 -0.4338032 -0.057992782 0.08671695 0.43724886 0.9872557 0.07089512 -0.15924151 -0.5241129 1.0649607 -1.23806 0.033665635
558 0.16004558 0.36017358 0.3728612 -0.68527555 -0.5774372 0.94652444 -0.047741678 -0.78321606 0.52403593 -0.0078711705 -0.3989522 -0.0434429 -0.3957901 -0.4361344 -0.07726337 0.5784217 0.3771149 -0.6840159 -0.31517875 -0.7877854 0.03798122 0.6266845 0.022217846 -0.19631843 0.42424014 -0.20296213 -0.51131994 0.2937446 0.08267289 0.67091477 -0.018204993 -0.17510535 -0.22167267 0.49109408 -0.46587554 -0.36644578 -0.5249921 -0.8633189 -0.05821531 0.7116953 0.26336858 0.9032904 -0.73002553 0.6566265 0.95720357 0.25837642 0.08110069 0.11110119 -0.33865792 0.1214494 -0.33705324 -0.09093943 -0.48201466 -0.06310605 0.2452146 0.32379612 1.3351297 -0.47099465 -0.13140118 0.051224373 -0.4287549 0.1459203 -0.4039285 -0.7340866
1687 0.04496101 0.394687 -0.15182732 -0.46376115 0.23241448 -0.33349353 0.6553664 -0.118837476 0.08216102 0.09608487 0.26533958 0.020780873 -0.29550081 0.21169564 -0.7135635 -0.41828457 0.3277486 -0.6632457 -0.77261144 -0.5675387 0.43743777 0.16452335 0.1129919 -0.0044216947 -0.3010036 -0.55788326 -0.32664645 0.08263195 -0.14195123 -0.21319366 0.63971055 -0.49135935 0.14357835 0.23888129 -1.0106274 -0.10762373 -0.35107476 -0.9495747 -0.34523422 0.25479513 0.9208652 0.60386586 -0.045584567 0.6364213 -0.36205634 0.21731785 -0.25017765 0.15533823 0.19888301 0.032438826 0.44047916 0.091856256 -0.9616536 -0.08265954 0.30286542 0.32848534 0.93109065 0.49590796 0.022541678 -0.3987784 -0.2770504 0.09001339 0.010038113 -0.76248246
1498 0.34425247 -0.24014352 -0.36547962 -0.21288836 0.7702189 0.37204123 -0.373603 -0.05245183 -0.19671842 -1.3937458 -0.20093127 0.63855225 0.14083546 0.024686538 0.78477204 -0.3893701 0.080626205 -0.08926723 -0.6527201 0.35817716 0.06862928 0.074977316 0.24228118 -0.17366856 -0.055811748 0.24369818 -0.3524514 -0.17191032 0.28998774 0.20010744 -0.09630853 0.41151848 -0.3854325 0.50889295 -0.36224467 0.14859214 0.22885665 -0.057065357 -0.4197502 -0.5484112 0.4206802 0.97318095 0.20164569 -0.012027385 0.27385142 -0.26172456 0.49433416 0.13846835 0.59895736 -0.16144146 0.5548134 -0.69921094 0.73548704 0.67403936 0.31406385 -0.112059854 0.523666 0.8146565 0.29225108 0.008099022 -0.7161264 0.35361803 -0.24444722 0.15561754
99 0.83059293 -0.7011032 0.384291 -0.45468923 -0.057560645 0.73055834 -0.9672944 0.06464812 -0.14897385 -0.052004255 0.16442822 -0.04569521 -0.3526766 0.32344532 0.2750718 -0.24147038 0.04844077 -0.6265975 1.2245276 -0.100987576 -0.15208313 -1.3803151 0.29527488 0.57367676 0.014735077 -0.5087601 0.15148248 0.1196479 -0.045768913 -0.16041856 1.334774 0.15541324 -0.88307875 0.1689153 -0.18492313 -1.4527384 -0.38118774 -1.930709 -0.61436486 0.9933715 0.9073704 0.30140173 0.11509689 -0.84397274 -1.4648021 0.08444169 1.1547481 -0.48124874 0.18012051 0.28685385 0.25025004 0.14587402 0.10018974 -0.23229308 -0.4894749 1.6790783 0.98741037 0.06520632 -0.59822863 -0.021124015 -1.3990947 1.5737878 -0.054088384 -0.23074888
1550 -0.0013350127 0.08079657 0.034093533 -0.13505335 -0.048932713 0.53490895 -0.49569988 -0.21541768 0.0727882 0.96933126 0.22611094 -0.031348072 -0.6169334 0.5138986 0.18091549 -0.49189582 0.73125404 -0.17464286 0.05704747 -0.10852898 0.14540125 -0.04416614 0.20047672 -0.07903593 0.36045152 -0.3430926 -0.08949653 -1.0489285 0.40611967 0.16272318 0.86738926 -0.017219614 -0.48299253 -0.80170286 0.5517671 0.24788925 -0.09846831 -1.3862627 -0.46906492 -0.65295213 0.16811104 1.4395987 -0.5822204 -0.89073753 0.74749285 0.33910614 0.36190766 0.3986656 -0.34246698 -0.5167709 0.13685788 -0.07131046 -0.45314914 -0.02617139 -0.15035194 0.9238098 0.6823883 -1.0002683 0.09929076 -0.06754723 -1.0259556 0.8013116 -0.4350592 -0.46672514
1910 -0.9440269 0.44658822 0.54494643 -0.33958986 -0.54855657 1.3702679 0.83920836 0.39918557 0.060614545 -0.25102332 -0.18456616 -0.019603768 -0.43980822 0.04786538 -0.84329873 -0.51029015 -1.5734425 -0.6989357 1.5277215 0.341578 1.3821515 -0.13052423 0.05149398 0.25685826 -0.24888878 -0.665908 0.49606046 -0.5646095 0.46365473 -0.19457094 0.21003757 -0.021962091 0.14843644 0.13768047 0.49884063 -1.0420992 0.29544416 -0.3122541 0.94523835 0.034111474 0.84913445 -0.60400146 -0.2614718 -0.04162454 -0.23877518 -0.76664734 0.58593756 0.20996615 -0.61319846 -1.3942196 0.28293738 0.024550278 1.4174769 1.1303135 0.096338265 0.51492894 0.47327295 -0.1021074 -1.3154818 -1.0205841 -1.9390591 1.0106575 -0.28652716 0.070330456
1252 0.6889678 0.13903268 1.1771985 -0.35237983 -0.34690025 1.59636 -0.08446228 -0.042159136 -1.081685 -0.1557009 -1.6434933 1.2972921 -0.11074452 -0.21895927 -0.2933554 0.10297383 0.20692061 -0.49635032 -0.3800261 0.2878269 0.0772969 0.3119748 1.261482 -0.45955458 0.7299753 -1.8379537 1.2405589 0.29204628 0.3437734 0.68420625 0.27187574 -0.032765076 0.017666727 0.45129257 0.1053694 -0.32431126 -0.14831081 -0.57547164 -0.40415722 0.6808825 0.36930197 0.08584836 -0.88272995 0.114567496 -1.3222978 0.52110475 0.09764294 -0.22914991 -0.6257008 -0.0860386 0.34180462 -0.751776 0.48138255 0.641439 -0.09433563 -0.07835785 1.6464795 0.8799947 -1.3470781 0.2109322 0.13872774 -0.47257125 -0.47770575 0.42810065
2423 0.3671001 0.39981237 0.022039486 -0.6862274 -0.40069723 1.0917184 -0.20022045 -0.5474596 0.5307241 0.6441519 -0.06509595 0.0053317747 0.1467389 -0.09589275 -0.35821193 -0.17925547 0.20841709 -0.13568656 0.14683102 0.057197277 0.24565817 -0.11114724 -0.12252488 -0.2195279 -0.7080471 -0.88928443 0.102752075 -0.5126957 0.5406543 0.5053439 -0.43878722 0.6925939 -0.17383243 -0.20981589 0.21911573 0.49252743 0.18054996 -0.17260234 -0.038624108 0.32548165 -0.087105036 0.41327214 -0.507232 -0.20355673 -0.87200135 0.4313254 -0.13234478 -0.62257075 -0.281093 -0.16171004 0.42834133 -0.36740416 0.21890056 0.46109113 0.13596529 -0.704987 0.027967457 -0.12763847 0.79113925 0.1902655 -0.9678133 0.06633848 0.39689097 -0.21336663
1595 0.10419098 0.8623843 0.35833433 -0.74432015 0.92444915 -0.038535893 0.14230631 -0.56220174 0.7566984 0.014363885 0.37303695 0.29542837 -0.022596752 0.10732581 0.23223121 -0.46075606 0.7389036 0.31753737 -0.3642584 0.5324126 0.20415604 -0.84446084 0.050891288 -0.37679213 0.3579766 -1.2410285 -0.053552654 -0.3964213 -0.28286996 -0.9053502 -0.1252649 0.62882715 0.009667053 -0.05141095 0.44060677 0.92437196 -0.17296472 -0.07754513 0.34048676 -1.3250724 -0.70480293 0.02842411 -0.4054122 0.48814777 0.023673493 0.9091605 0.51734364 -0.68193895 -0.024408292 -0.137271 0.0214677 -0.34551576 0.2693219 0.55425954 0.5265542 -0.3377479 1.0768598 0.5596278 -0.4075053 -0.5114352 -0.58755255 0.60929966 -0.7002751 -0.4254356
1718 -0.22844845 -0.14721303 -0.27437556 -0.11837475 -0.016864946 -0.5626224 -0.28999153 -0.062189348 0.45375878 -0.4169597 -0.21352628 0.1086819 0.013714548 0.20433028 -0.5790691 0.34967303 0.40184963 -0.03591605 1.1013324 -0.23951077 0.24677639 -0.2547405 0.4210022 -0.7402327 -0.39854386 -0.52933973 -0.1534298 -0.14715013 0.23298068 0.9025339 0.26946643 0.050454564 1.096604 -0.1357707 0.2425259 -0.38305268 -0.15892838 -0.358467 -0.531277 -0.61973584 0.1342463 0.15761393 -0.61855733 -0.20063664 0.33293337 0.59951586 0.31169587 -0.2216385 -0.57147944 0.15154743 0.44007227 -0.21622579 0.66643006 0.10745715 0.872012 0.9029007 0.52933097 0.10428027 -0.25161526 0.0822652 -0.31892574 -0.26713982 -0.13696787 -0.16073687
2220 0.45638257 0.058206294 0.29080427 -0.05635485 -0.17840657 -0.19484474 -0.47939807 0.8197465 0.14675747 0.13385385 0.031850167 -0.06091987 -1.2708492 -1.700889 0.36482298 0.3847096 -0.28281352 -0.037172735 -0.28665352 -0.17198916 0.6817132 0.1312877 -0.18502033 -0.7655006 -0.63209677 0.11783212 0.180179 -0.42213902 0.43680707 -0.27956668 -0.964226 -0.49965453 0.27894428 0.62315696 -0.39086238 0.11755579 -0.6657049 -0.8059853 0.08769379 0.041368775 0.31713223 0.75299877 -0.36584243 -0.5011899 0.25826594 0.6770175 0.34516487 -0.54516625 0.31241462 0.1587371 0.6982272 -0.2190232 0.033366088 -0.26079005 0.10444828 0.33986667 0.4329237 0.22775507 0.07969106 -0.6117868 -0.40911713 1.0976049 -0.7461387 0.3190014
995 -0.7194186 -0.013652674 0.60610396 -0.23642775 -0.27904075 0.17966218 0.2956553 1.088802 -0.18729313 -0.0044826437 -0.24395004 0.3493386 -0.6140615 -0.5932629 0.7910944 -0.44867247 0.21202509 0.44160968 -0.2641462 0.1849533 0.17336534 -0.11069302 0.3622897 -0.29515427 -1.0136913 -0.6297169 0.35493246 0.39065945 -0.08955083 -0.5411601 -0.043799277 -0.42394704 0.029371895 1.4396578 -1.2997531 0.24064872 0.07962548 -0.5107959 -0.016670372 -0.15959181 -0.39612362 -0.14200634 -0.4072521 0.12810117 0.19668369 -0.0029421975 -0.2856656 -0.76237065 -0.016861446 -0.6108493 0.89083266 -0.23261495 -0.2842666 -0.37294605 0.18828256 0.35409072 0.23687218 0.8381246 0.04650869 -0.20023555 -1.2322569 1.1624855 -0.3752681 -0.0728262
1003 0.8479581 0.5551559 -0.043523803 -0.378091 -0.14868659 0.4416631 0.57016426 0.026035832 0.8945474 -0.10787118 0.34000948 0.5351063 -1.3419104 -0.3414966 -0.5336044 0.35749143 0.6770367 -1.1260616 0.5454424 0.2040385 -0.35648564 -0.5829307 0.9713894 0.3899113 -0.32161438 -0.9848998 0.4241064 0.37603888 -0.36520645 0.30898565 -0.6614037 0.59559757 -0.15730853 0.19492744 0.59243244 -0.7588225 -0.46422666 0.41608027 -0.16039559 -1.1057698 0.2778704 0.043386485 -0.8009999 0.44843128 0.39149353 -0.84028506 0.16463201 -0.027141487 0.83574414 -1.3445095 1.2530012 0.4289125 -0.79533905 0.28552982 0.2100172 0.27363262 -0.11551121 -0.25310558 -0.0703901 0.7722443 -0.35286117 0.13817461 -0.31448102 -0.18110809
1378 -0.23033132 -0.10662071 -0.21847895 -0.40484565 0.32490465 -0.12947631 0.6232281 0.062363114 0.39974645 -0.86098605 0.100386985 0.0814669 0.048795674 -0.51718014 0.33607537 0.7299889 0.112972654 -0.7957142 -0.54220337 -0.49940404 -0.20449886 0.47999778 0.107958235 0.19435917 -0.45773917 -0.10166098 0.41877842 -1.0201714 -0.2652782 0.027774207 -0.5281946 -1.2295921 0.3094127 0.41750088 -0.023669742 -0.006181078 -0.37886217 -0.6609852 -0.4890402 0.027642993 -0.027037999 0.54906964 -0.17129621 0.27699718 -0.4502035 0.29640257 -0.08372484 0.1557242 -0.37799847 -0.18604845 0.32801953 0.85906535 0.044634946 0.23225187 0.09725786 -0.036075156 0.62446207 -0.33235636 -0.27341357 -0.5669494 -0.90227383 -0.019457478 -0.31500626 -0.72915787
1016 0.68246853 0.22877121 -0.2592827 -0.16269287 -0.32042724 0.54004043 0.40470228 0.5284143 -0.39801976 -0.60829586 1.1207453 0.5021265 -0.32362625 0.34334877 -0.3577551 0.33361572 0.0008796236 0.37276933 -0.44437528 0.41559622 0.19145389 0.957014 -0.19003904 -0.27462804 -0.8105197 -1.0636063 0.30457857 -0.16465048 0.7475178 -0.82294255 -0.09431693 -0.0013779694 0.26221532 0.41692355 -0.33317766 0.48869848 0.2620846 -0.817011 0.033503134 0.19277887 1.0565643 -0.037829794 -0.31591168 -0.26669782 0.2806127 -0.057677474 0.2534192 -0.6636026 -0.2966248 -1.040752 0.9637899 -0.30376175 0.41296583 0.5093706 0.19187234 -0.011645114 0.13007602 0.615042 -0.32486752 0.097540915 -0.12896869 0.44023508 -0.99883515 0.22324112
145 -0.09888897 -0.095192075 0.44507572 -0.5003525 -0.35992002 0.7410853 0.0061984053 0.98147 0.043815583 -0.85711575 0.31327742 0.2941971 0.04617092 -0.06989359 -0.11934933 -0.2843581 0.09923346 0.16108473 -0.18099509 -0.13604397 -0.43774003 0.3991598 -0.04252614 -0.04236101 -0.37890846 -0.34292287 1.0270988 0.13474642 0.06814251 -0.31686103 -0.2717015 -0.013782029 0.63231415 0.45644414 -0.07375447 0.65634835 -0.4692908 -0.8381727 0.33292338 -0.4015791 0.64170486 0.109769605 -0.29945645 -0.7308291 0.20313135 0.017100384 -0.3187523 -0.8792767 0.16674477 -0.20910592 0.7377522 -0.5113763 0.6982108 0.3257829 -0.21467058 -0.1231646 -0.4026047 0.19717781 0.060723137 0.17856534 -0.12916183 0.5404646 -0.9231713 0.034135412
219 0.6133633 -0.15713206 -0.03117299 0.74941456 0.32633132 -0.42871687 -0.17883277 0.061794978 0.19643122 -0.41397157 -0.25120163 0.6418865 -0.6004907 -0.80921763 -0.44926852 0.1708868 0.07813704 -0.37936538 -0.19370656 0.022195615 0.08116932 -0.016492981 0.08686844 -0.5544987 -0.5148972 -0.27699333 0.25498512 -0.15497014 -0.16056897 -0.33714134 -0.55689174 0.02166846 -0.16140828 0.83283234 0.06947106 0.23429775 -0.34737748 -1.6719385 -0.6134404 0.20567475 0.5409854 -0.00596008 0.15015924 -0.31225324 0.43936828 0.13845801 0.1980739 -0.546428 0.061478067 0.6519608 0.79951954 -0.36881056 0.20750606 0.53554934 -0.020209806 -0.24673252 -0.7483089 0.83785826 -0.2661278 -0.06677582 -0.8494802 0.5854844 -0.043645237 0.23766856
562 -0.31098476 -0.112448364 -0.23095633 -0.59288746 0.32701713 0.03577185 -0.4654996 0.4135178 0.45025054 -0.47896275 -0.009828287 -0.33978054 0.056978144 -0.14899124 0.059696916 -0.26390117 0.41619137 -0.38364634 -0.046608992 0.016207058 0.19623771 0.9243881 0.55847317 -0.19375274 0.33211577 -0.35262406 1.1616234 0.06520686 -0.087354586 0.3798798 0.18592015 -0.2488787 -0.30163538 0.5843097 0.28400236 -0.04387111 -0.34964523 -0.8716531 0.17180683 0.26786995 -0.018911228 -0.30227035 -1.0194939 0.0644922 -0.8626266 0.6148045 0.7220418 0.35280046 0.5283016 0.110641204 0.7245309 -0.062967874 0.24763891 0.43847436 0.1421373 -0.20536757 0.31503704 -0.16443421 -0.95852417 -0.8342302 -0.76275665 -0.7001117 0.15174349 -0.38590488
636 -0.002692632 -0.06672434 0.06728358 -0.37798166 0.73391324 -0.43729803 0.17099631 0.74356925 0.22325748 -0.36655423 0.15693212 0.5615351 -0.14951722 0.30016065 -0.03137814 -0.27397346 0.31093782 -0.8341027 -0.39945117 0.3982962 -0.38884526 0.51729524 0.0015325086 -0.5087996 -0.16484492 -0.36013463 -0.4463947 -0.12876453 -0.06136241 0.27874097 0.009952447 -0.39260218 0.5542656 0.46460444 -0.011904633 -0.091705 -0.75710064 -0.6139685 -0.8486326 0.42551142 0.06961668 0.39899883 -0.7115414 0.47814628 -0.2641778 0.4011116 0.113085024 -0.44622952 0.30532092 0.022174487 0.40783587 0.43554768 0.31540504 1.0489923 -0.4526043 -0.9081847 -0.28696695 0.14995147 -0.36349526 -0.11594093 -0.26767582 0.49577352 -0.6800908 -0.04976267
772 -0.21939413 0.26584795 -1.199444 -0.08874682 -0.4532075 0.84678555 -0.6221168 -0.8352108 -0.18326174 -0.0045659174 0.7628218 0.0757487 -0.8097279 -0.08123791 -0.9727687 -0.019239936 0.26538315 -1.0853207 -0.009664152 0.41860303 0.093996465 -0.65180856 0.104213625 -0.6283479 -0.4165643 -0.020494815 0.16151278 -0.24750666 -0.3655489 1.022899 0.26272425 -0.027632007 -0.35317218 0.046002787 -0.25537425 -0.25145972 -0.3562059 -0.6668774 0.43940237 0.5099274 0.044678684 -0.007688357 -0.34213674 -0.21303795 0.47502732 0.68018377 0.7218753 -0.73899204 -0.32613492 -0.29443422 -0.6855861 0.50922525 -0.2114843 1.0228013 0.39969614 1.0022702 0.23707613 0.36740807 -0.46779177 -0.4904199 -0.24203783 0.0866653 -0.40137348 -0.46986762
1335 0.39374158 0.22472948 -0.44546202 -0.3297703 0.27119115 0.15964948 -0.17597723 0.19977725 0.36856765 0.70072126 -0.66560704 -0.5603054 -0.09125659 0.19660006 0.26784903 -0.20286411 0.40334094 0.25902715 -1.0672162 -0.21101801 -0.6767771 -0.43991292 0.3830813 -0.13559966 0.47817641 -0.4150838 -0.52790177 -0.90810746 0.548608 0.033178095 0.23013687 -0.26660636 0.32379913 0.70234406 0.6578132 -1.2778332 -0.2007404 -0.34218815 0.55842143 -0.62123424 0.016501315 -0.46023417 -0.50426424 -0.34095705 0.096037135 0.26665407 -0.35143375 -1.1431965 0.09313109 -0.64264643 -0.25963527 -0.08642163 0.5986633 0.306764 -0.35632908 -0.21551315 0.42737642 0.10466971 0.5014276 0.017111616 -0.7245795 0.748717 0.11084257 0.2304818
1218 0.006068765 -0.57811254 -0.10089264 -0.70349216 -0.6761459 0.4997311 0.34543848 0.6907046 -0.27124226 -0.8054511 0.8154848 0.4601294 -0.24883124 -0.41360012 -0.2827672 -0.007723957 -0.40452188 0.018086575 -0.3444971 0.19909276 -0.015812006 0.43323877 0.10694778 0.32052192 -0.44677773 -0.56895536 0.8456774 0.3151376 0.25771186 -0.5274208 -0.14954814 -0.3268719 0.59555125 0.28647926 -0.42222965 0.068349645 -0.716429 -1.1751405 0.01828537 -0.056509558 0.82030684 -0.58995223 -0.16780229 -0.537237 0.21300654 0.18573694 -0.17322186 -1.3261291 0.090856984 -0.24926132 0.96418387 -0.52729625 0.7400357 0.621505 0.45255154 -0.0609347 -0.29208654 0.22919825 0.15878454 0.013448023 0.1890988 0.27368808 -0.8764813 0.038952444
1241 -0.37348276 -0.044782422 -1.8367957 0.056590576 -0.084425315 1.331318 -1.004038 -0.796495 -0.4772046 0.58505434 0.65155596 0.33944026 -0.64655614 -0.6726432 -0.21474443 0.25003847 0.674953 -0.8963923 0.045863915 -0.044100113 -0.3183343 -1.1046039 0.25056902 -0.038776744 -0.37237555 -0.25866994 0.25909075 -0.12805462 0.012856089 0.6452934 0.037979122 -0.3900736 -0.67548764 -0.5670125 -0.3002983 -0.22990473 -0.20560578 -1.2537558 -0.33388966 0.19724633 0.17419691 0.19890168 -0.7012769 -0.65552694 -0.5128214 0.5434088 0.8034892 -0.4482515 0.042845283 -0.5024861 -0.725364 0.3900408 0.2844873 0.370786 -0.224713 1.1171896 0.12236895 0.30764169 -0.40478998 -0.64211166 -0.51893526 0.12037588 -0.21167439 -0.3472371
258 0.41449383 0.53182214 0.18431062 -0.48310992 -0.11526215 0.5372788 1.1585999 -0.60458213 -0.23691943 0.4486725 1.2411982 -0.2818018 0.2834075 -0.59685904 0.17910208 0.23776166 0.90767366 -0.028223515 0.59057516 0.053330828 -1.2198274 0.23194861 1.3320082 0.16326496 -0.07466381 0.3187824 0.056583386 0.05292391 -0.62477833 0.0671025 -0.19169825 -0.75913036 0.21185495 1.0023252 1.2176418 -0.82053447 -0.0054107434 0.18061888 0.21418436 -0.83833796 0.8135319 0.43603843 -0.102733515 0.18603195 -0.042342838 1.1662247 0.36533803 -0.91664666 0.031564467 -0.023228256 0.37337694 0.8802677 0.540369 0.12775415 1.1092927 0.44945052 0.31394064 0.6292505 0.8366396 -0.20389731 -0.7085435 -0.3478106 0.020803498 0.116343774
538 0.727472 0.07689845 0.77744365 0.63625944 0.7813734 0.31213728 0.1012627 -0.099309415 -0.1863956 0.024410037 -0.7836906 0.20782658 -1.0294873 -0.6152787 -0.76607823 0.37132356 0.26693484 0.05155574 0.07609909 -0.011553851 -0.18912739 -0.2612603 -0.1296613 -0.42836156 -0.09690986 0.05106106 0.42726505 -0.21880636 0.118387386 -0.30890584 -0.78715104 -0.23531191 0.11853303 0.7311471 0.37205407 0.39680484 -0.21746847 -1.4820856 -0.46458685 0.07102781 0.36744377 0.06414124 0.48199436 -0.15340084 -0.07408454 0.3549765 0.18229803 -0.86613506 -0.5617329 -0.023167545 0.9989485 -0.79141325 -0.06764877 0.32533383 -0.56880665 0.16119733 0.093951784 0.63066566 -0.43529317 -0.5353062 -0.05905372 0.103677206 -0.033538144 0.264082
465 -0.3380751 0.24711165 0.034071114 -0.51179004 0.5718539 -0.56855947 0.3704356 0.35906315 0.4129075 -0.65134394 0.4893684 0.13282743 -0.5198219 0.10059036 -0.33814684 -0.05415077 0.721963 -0.7366162 -0.30199468 -0.38609642 -0.44634604 0.2367031 0.035277218 -0.17536773 -0.08751723 -0.5444548 -0.0907297 -0.05434705 -0.1905523 0.7676722 -0.2706219 -0.6128471 0.43110085 0.36526054 -0.5709353 -0.19051684 -0.063064575 -0.37830806 -0.5744868 0.27647215 0.02677958 0.24505214 -0.30956814 -0.23172013 -0.27385214 0.7550189 -0.30528638 -0.06095221 -0.059774414 -0.38968566 0.67251605 0.45174235 -0.16296563 0.51295406 -0.14505105 -0.62795377 0.24501716 0.36547217 -0.47543925 0.059521932 -0.37497416 0.36855355 -0.065637685 -0.21952163
2334 0.29641873 0.3790893 -0.24132678 -0.11152022 -0.3857152 -0.02622731 0.004376036 1.1110804 0.4550902 -0.45798448 -0.1739494 -0.032848917 0.022089433 0.39458627 0.5384307 -0.57189494 0.44290593 0.12348278 -0.7294097 -0.14015733 0.09909276 0.43211937 0.33515415 0.024158671 -0.3759711 -0.5621597 0.53710055 0.33591005 0.1814149 0.09171264 -0.33142278 -0.57637346 -0.32780737 1.2199159 -1.3666754 -0.09087849 -0.4040237 -1.3915935 -0.97637814 0.40358588 0.3154472 0.02634112 0.3861416 -0.32322934 0.35154736 0.75888056 0.10678461 -1.1668248 0.25051478 0.14889655 0.7797054 0.06544994 -0.707707 0.47681364 0.31418133 0.117410794 0.11412925 0.27296346 0.17748341 0.21026292 -0.792485 -0.29522583 -0.099185236 -0.2593942
477 -0.37001038 -0.066355556 -0.20297159 -0.44137445 0.10772253 -0.031083569 0.45682502 0.010525476 0.019884247 -0.62092954 -0.06296491 -0.10496415 -1.0573039 0.14913997 -0.23338446 -0.024990592 0.649617 -0.34758794 -0.049993917 0.100965634 -0.09780975 0.22621766 -0.38951468 -0.35429338 0.02802543 -0.03791059 -0.14719047 -0.110104576 0.4570503 0.14671831 -0.37884447 -0.25951797 0.6298423 0.23925208 -0.32995072 -0.20321171 -0.09583156 0.21910308 -0.36989355 0.0039490443 -0.15533777 -0.16111137 -0.26216426 0.16758995 -0.665308 0.30272713 -0.261997 -0.17530654 -0.4794284 0.4586146 0.38394824 0.8415685 -0.28579047 0.69353014 0.11593052 -0.25845587 0.57408005 -0.37163103 0.01655124 -0.446057 -0.735832 0.17970651 -0.25328264 -0.33706218
1333 -0.21024697 0.34500498 0.3509691 -0.24485765 -0.19745986 0.37756315 -0.39861265 0.2649491 0.05118031 -0.35477984 -0.30101836 -0.09717581 0.31817815 0.18720408 -0.25667706 0.110209815 0.40017164 0.13420174 -0.5338757 0.32348505 0.42389834 0.32629153 -0.020774141 -0.086417824 -0.3941077 -0.70383024 0.8404679 -0.083762914 0.16148436 -0.8198766 0.10153638 -0.5441585 -0.41747454 0.26547733 -0.20530482 -0.003828342 -0.17576694 -0.6614598 -0.17853044 0.45819387 0.28452647 0.4295417 -0.32339683 0.06706115 0.46356663 -0.8619437 0.58590484 -0.21029371 0.58686906 0.43216163 0.9052999 -0.35484675 1.0406544 0.6057808 0.10027854 0.4150308 0.18000686 0.24692656 0.17089961 0.21136414 -0.4302264 0.18740733 -0.03354298 0.21096122
649 0.104102954 -0.18140902 -0.536658 0.3463111 -0.053538937 0.9248393 0.6364536 -0.24714373 0.3554127 -0.88181216 0.39302915 -0.18305327 -0.19385074 0.5561393 -0.31178886 -0.11504501 0.4963263 -0.33112153 -0.13796674 -1.0414758 -0.24155062 -0.2189651 0.94886965 -0.4697015 0.23318455 -0.3719233 -0.64318657 -0.6181776 0.0761416 -0.82840276 -0.30489543 -0.14464296 0.015724314 0.36203924 -0.40020052 0.4760843 -1.1736089 -0.63069457 0.6536495 -0.3330432 0.6038074 0.19676204 -0.14850044 0.8440341 -0.45191044 -0.89598775 -0.15079708 0.415344 -0.22826503 0.1504011 0.4934372 -0.1238004 0.6766997 0.43321118 0.30097866 -0.16034034 -0.36629727 0.29772422 -0.07771236 0.07765222 -0.025717672 1.1971116 1.3615828 -0.36205605
668 -0.4390219 0.09323039 -0.44940126 0.12132983 0.24200821 0.27769387 -0.4381745 -0.40701678 0.56773394 -0.54215527 0.17663462 -0.17662126 0.058330562 -0.11291425 -0.6342606 -0.38089398 0.009016342 0.3184909 0.7573958 -0.5796738 0.2332513 0.10890405 0.118545085 -0.7135937 -0.54565066 -0.7303388 0.4578384 -0.2961096 0.30496085 1.0003793 0.6313514 0.009971701 1.0388254 0.09014687 0.31061825 -0.82671136 -0.5337679 0.36392036 -0.6337792 -0.5207725 0.52644587 -0.24273306 -0.43792382 -0.6524022 -0.6365734 -0.2156496 0.5068063 -0.7733009 -0.2636945 0.10720164 0.11923342 -0.88520074 0.4983163 0.62235653 0.15307435 0.32160237 0.6973582 -0.24396823 -0.5222855 0.517939 -0.6745967 -0.4499231 -0.4636947 -0.37960237
862 0.387723 0.11481477 -0.15430231 -0.57240945 -0.43838367 0.8615714 0.19115326 -0.5976851 0.54158884 0.72821844 0.20473208 -0.96310157 -0.21738562 -0.0149128195 0.2981405 0.214994 0.630446 -0.21316116 -0.37627396 -0.15809266 0.66645217 -0.03786867 0.6983957 0.10365185 -0.33068123 -0.67457217 -0.07181583 -0.7741177 0.03714821 -0.37214017 -0.6250388 0.77516216 -0.10578806 -0.113263145 0.0925275 0.079435736 -0.2717635 -0.22609001 -0.1276499 0.44439805 -0.32921964 0.42163694 -0.8412694 -0.40621606 -0.39835355 0.3135644 -0.42953664 -0.5900709 -0.19533993 -0.63644964 1.0083485 -0.29591137 0.5140523 0.46510765 0.46421498 -0.6732077 0.0530212 0.5663535 0.43229565 -0.29923812 -1.0614967 -0.38593224 0.6359119 -0.41854402
479 0.6012759 -0.030821903 -0.14741977 -0.23089446 -0.2568671 0.37419242 0.0015439042 -0.04811848 0.36340898 -0.21644147 0.093719974 -0.684912 -0.15107615 0.42235726 0.40781534 0.26932332 0.44519326 -0.1134068 -0.8130889 -0.10758657 -0.061240725 0.5299769 0.52535635 -0.53596985 0.60110253 -0.4653439 -0.11692355 -1.1087661 -0.66042113 -0.18575184 -0.07843759 -0.23214003 0.0943073 0.33472422 -0.45682976 0.3248762 -0.9450441 -0.0349351 0.58414143 -0.20302786 0.22142361 -0.050334558 -0.27567047 0.09107483 0.11274435 0.11916274 0.2672256 0.15959434 -0.4608796 -0.28134406 0.52870816 -0.3718628 0.0661692 0.41480958 0.63322836 -0.041236117 0.481921 -0.5232669 -0.23613736 0.4897079 -0.41233495 0.7465798 1.08726 -0.19697513
965 -0.87131697 -0.2920581 0.3906349 0.41646913 -0.1852895 0.6459229 -0.7629048 0.7481996 -0.17375313 -0.28730905 0.40977806 0.26049992 0.27947223 -0.17300405 0.6060995 -0.28544733 -0.21735556 -1.2253338 -0.5232959 0.32099152 -0.4145175 0.027368786 0.26705348 -0.017662719 0.021712072 -0.7615279 -0.24764149 -0.824107 0.28207427 -0.9702229 -0.14522175 -0.750905 0.014865224 -0.18833558 0.24281956 -0.23206276 -0.759844 -0.49302498 -0.13864559 -0.53986275 0.44072416 0.48580116 -0.33998328 0.3535643 0.38185123 0.218843 0.5484305 -0.56202525 -0.0933082 -0.14956138 1.2834448 -0.37143856 -0.21381512 0.63778853 -0.04297331 -0.36561072 -0.442049 0.5584817 0.20130092 0.016906355 0.083282106 0.13511576 -0.4520698 -0.19645375
1854 0.81677496 -0.24584998 0.6031923 -0.44615012 0.007969024 1.1430565 -0.20111585 -0.029319894 0.347626 -0.7170311 0.6823672 -0.4387683 -0.7685156 1.7523687 0.77878064 -0.30306423 -0.08316351 -0.9701303 -0.6014888 -1.1180086 0.09426177 -0.31805554 1.1581081 -0.7964773 -0.3504958 1.2970556 -0.48007607 -1.419871 -0.40598986 1.239472 -0.26144984 0.11781955 -1.2674505 1.6940637 -0.35641867 0.21294506 -1.5014498 0.014484741 -0.56958044 -1.2543631 0.83345383 0.36472014 0.8329715 0.10068491 -0.79664457 0.040909376 -0.197793 -1.1378819 0.017810116 0.36493635 0.50953597 -0.41993606 0.5762713 -0.37873483 -1.0554047 1.228456 0.6488003 0.035480108 -0.45666403 -0.49372667 -0.7531076 0.2760569 -0.06777065 0.50665784
667 -1.4071413 0.017700732 -0.32455522 -0.61924076 0.27758223 1.0087575 -0.1031297 0.29446208 0.26521936 0.79351425 0.318688 0.85729367 -0.09404248 -0.21140409 -0.5920414 0.51120496 -0.0558256 -0.41867137 1.3456621 -0.8220423 0.11964444 -0.11704281 0.1627583 -1.5083375 0.39747915 -0.39281106 0.69514245 -0.35441288 0.18476218 -0.21621364 0.013800769 -0.048959956 -0.418559 1.1982954 -0.11042332 -0.6867704 0.39203706 0.47998434 -0.048052445 -0.40350226 0.630895 0.87755907 -0.35739905 1.2159864 -0.56971914 1.067748 0.2232253 -1.2060351 -0.77438605 -0.07462956 -0.044134907 -1.2987859 -0.0041985284 0.41244724 0.2340068 -0.5093303 1.1209704 -0.05189306 -0.54747427 0.6873667 -0.121327735 0.29647592 0.037576165 0.011886287
1117 0.07103596 0.03291534 -0.11753324 -0.12656718 -0.41120443 -0.055517267 -0.88095325 1.1265349 0.20925155 -0.44715905 -0.008805791 -0.5510839 0.111153975 0.04685155 0.40595466 -0.71816796 0.51542133 -0.32036692 -0.3847572 -0.047604356 0.03686744 0.63768595 0.7007743 -0.4646048 -0.14097162 -0.19375439 0.82235926 0.06380416 0.21734317 -0.066068634 -0.32512447 -0.4479149 -0.8263759 0.56074953 -0.5602668 -0.10426976 -0.6712701 -1.0546753 -0.6413235 0.48986745 0.45878306 -0.0133695165 -0.35421732 -0.1656505 0.050960924 0.16274758 0.087885514 -1.1365191 0.42981172 0.183915 0.95321834 -0.47810024 -0.041487254 0.51450133 0.3601742 -0.433098 -0.06783175 -0.18172517 -0.5145971 -0.13869166 -0.52576077 -0.31680438 -0.31283933 -0.029596187
719 0.1494504 0.83190393 -0.2772344 0.5103391 -0.7179558 0.4517919 -0.11215821 0.0025455798 0.38994935 0.15820815 0.36059824 -0.33386555 -0.049996734 0.4824501 -0.009892293 0.39797047 -0.08779773 0.3985315 -0.41193 -0.14335383 -0.4028491 -0.056247786 0.29753694 -1.2284961 0.61155045 0.08812433 -0.28249675 -0.13277481 -0.13546948 0.66321963 0.26294625 0.20391105 0.5723052 -0.3305664 -0.24201064 -0.4651632 0.071608596 -0.8208367 -0.46297035 -0.27795044 -0.45671648 0.45867813 -0.5935875 0.67255926 -1.0816959 -0.45712173 0.24968655 -0.7342525 -0.33877417 -0.5444036 0.71401364 0.45835733 -0.17574702 0.34171712 0.22372803 0.5327471 -0.4790437 -0.25876454 -0.2997721 0.19378594 -0.4651234 0.054647326 -0.06353125 0.16853806
740 -0.11640797 0.21418336 -0.5724371 0.55139947 0.38400587 1.0195725 -0.16429923 0.116611674 0.49139926 -0.6284705 -0.25313777 0.44584924 -0.11774027 -0.19774985 -0.5942685 0.047425967 0.49670115 -0.045266237 0.2584311 -0.38660568 -0.07407392 1.1304034 0.5853334 -0.46013996 -0.15571032 -0.2806403 -0.15154067 -0.1588384 -0.12292802 -0.32386884 -0.2917358 -0.9340004 -0.12125299 -0.79005134 0.49945176 -0.28875086 0.052982245 -0.29854143 -0.39636168 -0.13860701 0.5385573 -0.254812 -0.12432365 -0.0918597 0.22841574 0.6294297 0.17287856 -0.16691928 0.15113415 -0.7027848 0.44467816 0.30794847 -0.39210436 -0.39934358 0.58354306 0.35656777 1.5255746 -0.8998181 0.19396673 0.14122355 0.017826393 1.2888957 0.7301923 0.28850034
36 -1.3351309 -0.11248502 -0.031320967 0.11976517 0.43295875 0.9929185 -0.19067375 0.2064411 -0.320227 0.7271661 -0.020721743 1.0088466 -0.33065373 -0.54362535 -0.257678 0.5684738 0.16517343 -0.5243358 0.015198366 -0.8015544 0.6509362 0.10546263 0.32717156 -0.85152596 0.2620659 0.23221159 0.025027478 -0.080177136 0.2875302 0.037734445 0.10749702 0.26055652 0.18620808 1.0206969 0.12979597 -0.5229044 -0.32421193 -0.064687565 0.097468846 -0.23147385 0.8258996 -0.3262143 -0.2650504 1.4358407 -0.7447175 0.090737 0.27240697 -0.7560099 -0.79626495 0.08306238 -0.040392544 -0.7457478 -0.26129088 -0.12316568 0.46107304 -0.6910311 0.9023902 -0.13346076 -0.31423563 0.64939 -0.48154885 0.17641501 -0.46172577 -0.8636453
1268 -0.8861176 -0.08285294 0.19524753 -0.6174175 -0.2641971 0.5196844 0.6785089 -0.042180765 1.3121915 0.4978852 -0.11233874 0.91484916 -0.20669831 -0.17004007 0.2997016 0.1679643 0.9712154 -0.62541103 0.099517055 -0.03140409 -0.45726764 -0.2755683 -0.17110176 -0.065906264 0.68356276 -0.906522 0.13086227 0.52616274 -0.32723337 0.88189 -0.95221025 -0.96786463 -0.29676265 -1.0907528 -0.080260195 -0.9659491 -0.7557303 -0.7943895 0.5756936 -0.112436526 1.0862782 0.15537931 -0.42114365 -0.064471714 0.78971565 -0.57676196 0.18505436 -0.6013052 -0.8847855 -0.400772 -0.33041722 -0.04962258 -0.4670351 -0.34120402 0.5754396 -0.24681608 0.16742118 0.49237382 -0.14768714 -0.7342101 -0.75040126 0.114570215 -0.08948548 0.21093439
88 -0.6470382 0.52952886 0.105464 -0.36685786 0.8065618 -0.13679704 0.4011008 -0.78581494 0.271271 -0.6835825 -0.1957207 0.14293611 0.27614343 0.29935035 -0.7414114 -0.18759418 0.05230102 -0.9413071 -0.3564156 -0.021408034 0.25703278 -0.42055073 0.67458063 -0.072731234 0.48095018 0.27682978 0.59910834 0.41238138 0.5037788 -0.552781 -0.31198296 -1.1352651 0.32637006 -0.2817362 0.6172707 -0.2598318 -0.2870083 -0.8721998 -0.13862573 -0.78562933 -0.20730697 0.5684728 0.14147745 0.08710776 0.43056074 0.074191034 -0.39782208 -1.047464 -0.12575732 -1.1814429 0.029818473 -0.4186167 0.78878486 0.6303483 -0.14833862 0.9165749 -0.10912868 -0.567438 0.059585895 -0.17660989 -0.17907389 0.4455307 0.05596305 0.22794199
15 0.20178945 0.34659174 0.33742246 0.17479746 0.5848472 0.5309174 0.25219032 -0.5762028 -0.16038208 0.67334324 -0.82347554 0.012741797 -1.047969 0.3566887 -0.6046248 0.30146918 0.8648266 0.43912917 -0.42764997 -0.29463577 -0.28527638 -0.23236689 -0.43491265 -0.23577 -0.43429524 0.69124645 0.1968415 -0.5213828 0.29917705 -0.24514483 0.2645842 0.004069198 0.48136586 0.104096934 0.448793 0.010563461 -1.1059535 0.06790997 -0.67795885 -0.19501749 0.39928225 0.07727333 0.2793919 -0.12886365 -0.20068902 0.78577167 0.039115585 -0.834419 0.02909059 0.09774377 1.0788362 -0.67459273 -0.22317114 0.356945 -0.2339947 0.44766852 -0.11534008 0.28192613 -0.13955444 -0.51112777 -0.38647082 -0.05904579 0.049015388 0.3042535
1123 0.10649246 0.027360912 -0.3950916 -0.8033088 -0.09686902 0.28158632 -0.040185098 -0.7209968 0.45389774 -0.8330124 -0.33766216 0.10641147 -0.15958202 1.1779112 0.5960631 0.44834167 0.074000366 -0.7690853 0.29376364 0.23513414 -0.85938174 0.22195612 0.44745037 0.17672619 0.16897246 0.4620785 -0.7666991 -0.51648706 0.6246107 -0.126213 -0.055850323 0.4445376 -0.67638904 1.2185512 0.32505083 1.1112016 -1.2817637 -0.12423372 -0.37275073 -0.620998 0.7839942 0.11267807 0.39977306 0.10887694 -0.5196669 -0.18269286 1.0318179 0.12891333 -0.30996716 0.12863407 1.2003328 -0.7756095 0.14274749 -0.2893949 -0.1534388 0.42972887 0.3370062 -0.21363606 0.23496217 -0.7652462 -1.0227234 0.54001844 0.29814062 0.30433306
735 0.48332715 0.6315505 -0.56113786 1.0009888 -0.52591413 0.038308665 -1.2131912 0.11941691 0.9853206 0.10644832 0.84676224 1.1080012 -0.28106275 1.6552719 0.4816832 -1.0599719 0.1119487 -0.5913629 1.1080172 0.18201473 0.8001557 -0.20425768 -0.9587448 0.7537382 -1.5553467 -1.2089684 0.5636299 -0.41454 0.067759626 1.1756226 -0.35706908 -1.0386537 -0.06853643 0.39157197 -0.7535061 -0.11170575 -1.5286473 -0.16942254 1.215719 -0.55368704 -0.41065758 0.6247976 -0.4816413 0.098109506 -0.875632 0.5804 -0.23152907 -1.5346541 -0.44108912 -0.4102412 1.3333049 0.68577224 1.1082866 0.020369155 -0.12688679 0.9080329 1.2479211 0.19626582 1.4085332 -0.5621373 -0.08134634 0.9822972 0.025812533 0.35684267
574 0.8497631 1.1362871 -0.22170334 -0.94442046 0.3149618 1.4654748 -0.3351134 0.24540842 0.282331 0.13068393 -0.223594 -0.028557109 -0.1710438 -0.44209835 -0.23643257 0.25675374 0.0016402405 -0.056401376 0.6678935 0.85865587 -0.41820747 -0.25312078 0.5653532 0.2386372 -0.42799023 -0.7893283 -0.3063784 -0.096687324 -0.12875476 0.15978178 -0.46157986 -0.571655 -0.056581654 0.385591 0.23874602 -0.6976086 -1.0078698 -0.46270144 0.09322285 -0.041708108 0.7542509 0.18970682 -1.1496826 0.7599553 0.10440757 -0.35375446 0.106669776 0.2756643 0.97747517 -0.1358476 0.46457654 0.4210081 -0.26966748 -0.24001485 -0.00052850007 0.61403584 0.24454337 -0.139918 0.6202433 0.40530413 -0.14799118 0.1990724 0.27157733 -0.45703548
1512 0.11275522 0.6866854 -0.78903013 -0.3405129 -0.28391582 0.49263275 -0.017071672 -0.020003222 0.7517451 0.45490283 -0.8483159 0.058579985 -0.37152773 0.23079321 0.240503 0.015214483 0.52671397 -0.46500766 -0.84069586 -0.33081374 -0.27886093 -0.38746947 0.3087967 -0.45294562 0.11502236 0.12940186 -0.5216695 -0.5653012 0.9560523 -0.3403057 0.94823366 -0.17970896 0.36005625 0.18734835 0.09653527 -0.7011608 0.31453875 0.18837859 0.0077996207 -0.2849999 0.36270705 0.17197484 -0.3923142 0.1589478 -0.5685415 0.52108437 -0.010157119 -1.1344274 -0.13471554 -0.6304424 -0.42337167 0.5305078 0.44316292 0.4428701 -1.0854592 -0.21128382 0.40367073 0.26011637 -0.0024659536 0.06643981 -0.874024 0.4878317 0.3949208 0.7990903
687 -0.30079862 0.19352268 -0.16484785 0.86634797 0.2323256 0.46050957 0.25333658 -0.08512237 -0.45788056 -0.38924938 -0.5493345 0.18752879 -1.0955242 0.5306928 -0.009600345 0.030861596 0.5503655 0.24499567 0.36600506 -0.1462376 0.64190924 0.10869954 -0.15006839 -0.9732735 0.40403047 -0.29214495 0.08769247 -0.42293885 0.49714807 0.6191795 -0.3924092 0.1666154 0.09220039 0.8146568 -0.047991734 -0.1224238 -0.62224364 -0.39166138 0.31144577 -0.60412115 0.36909562 -0.31779742 -0.82255983 0.20810784 -0.74521244 -0.3563114 0.1485519 -0.74735224 -0.09314899 -0.04588969 -0.43901893 -0.06076377 0.24591593 -0.067333244 -0.22294003 -0.31622553 0.77786845 -0.5561687 -0.5122323 -0.115589455 -0.88709664 -0.5906734 -0.65282005 0.48099315
380 0.14470775 0.23023736 -0.32749414 0.5832239 -0.4377458 0.17197414 -0.040474836 0.31749463 0.2999501 0.005526282 -0.29385364 0.63605386 0.007856275 -0.32740703 -0.24628499 0.008594089 0.44939703 -0.18569787 -0.10553121 -0.08892461 -0.0065791733 0.8786585 -0.3268772 0.0019748514 -0.21200967 -0.44937012 -0.22785385 -0.5387024 0.03493846 -0.48769385 -0.35779926 -0.2852727 -0.0005975426 1.0008962 -0.004766117 0.35706156 0.0069555244 0.048808847 -0.20710248 0.07532805 0.7224728 0.7802823 -0.14601117 0.018977541 0.35741112 0.12861738 -0.050206613 -0.9660896 -0.3967381 0.32912257 0.7839336 0.3236512 0.31062374 -0.6422975 0.1436573 -0.03750889 -0.2878733 0.79432446 -0.07218018 -0.23002858 -0.69444263 0.8056752 -0.86166406 0.4810052
2208 -0.40569463 -0.38931513 -1.0519052 1.6665261 0.53241545 0.8071576 -0.05857871 0.79991287 1.4380904 -1.0194944 0.10242637 0.68282676 -0.24775918 -0.12493637 -0.12896906 1.4835937 -1.0803105 -0.92528504 -0.191116 0.4003713 0.26066807 -0.504527 -1.8239604 -0.21701439 -0.7690076 0.22792204 -1.5167186 -0.82512933 -0.5316406 -1.293569 0.5825424 0.009895744 -0.69622356 0.78923726 0.51556104 -1.0461825 -0.21269593 -1.4286194 0.510839 0.009330062 0.58173335 0.5429508 -0.27732453 -0.11169251 -0.5116544 0.67756885 -0.04804111 -0.5153064 -1.2954943 -1.7737062 0.97218657 0.010521195 -1.4218975 1.2329469 -0.11348452 1.0463624 -0.02695157 1.1065096 0.982056 -0.6599011 -1.159161 -1.0062369 -0.8267241 -1.3646619
1215 -0.20178124 -1.1421068 -0.019177157 0.07170454 0.33521336 0.41608146 0.56115884 -0.15576133 0.30096507 -0.9299226 -0.036283888 0.23101465 -0.7203521 0.5261017 0.54888326 -0.30579323 0.50940573 0.3341286 0.39205375 -0.8240169 0.3057644 -0.75579756 0.51598996 -0.37960342 0.29698092 1.0539905 -0.0076642726 -0.22112495 -0.14592654 -0.14251444 0.15447876 -0.5579194 -1.4636459 1.3019854 0.77864474 -0.5196345 -0.8315746 0.15779155 -0.45872536 -0.22730914 1.3272032 0.9009433 0.18507586 -0.013062679 -0.54495907 -0.30441296 0.16204761 0.48058 0.036379933 -1.7189916 2.1394813 -0.18041351 0.5261598 0.25959837 0.6256359 0.17629756 0.38734937 0.8732814 0.41722384 -0.5881822 -0.29433492 0.6325907 0.5108793 0.63836735
82 -0.33200562 -0.14112408 -0.47202727 -0.07360337 0.5455329 0.16033757 0.5376658 0.01211258 0.3871572 -1.015863 0.4369615 0.03960516 -0.30009764 -0.016643548 0.7517291 0.89045566 0.3923436 -0.38052475 -0.7713163 -0.3421464 -0.17347951 -0.04825246 0.3428225 0.38086808 -0.379023 -0.3145306 0.5997167 -0.50336146 -0.40452856 -0.010674894 -0.4599421 -1.0289489 0.4056727 0.43432727 -0.013489905 -0.37037474 -0.13974176 -0.45835572 -0.402428 -0.024482204 0.6586206 0.6216868 -0.27027526 0.36878365 -0.91018707 0.26931226 0.10105484 0.37161055 0.06044778 -0.30842572 0.115183525 0.3565319 0.100059904 0.24148677 0.1378649 -0.34424934 0.28405604 -0.39157912 -0.72653174 -0.6259897 -0.6292181 -0.015887761 -0.3095974 -0.8465761
411 -0.2614079 0.66947764 -0.71994346 -0.24342911 0.15337165 0.08763205 -0.52419573 0.40729174 -1.1531552 -0.72613657 0.10395784 -0.0013897701 0.30425408 -0.114541546 -0.9029741 -0.2136532 1.1911925 -0.47135878 0.6315806 -0.56612605 -0.32300115 -0.010036055 -0.6494151 0.14248489 -0.6899749 0.3862269 0.06996196 -0.3161266 -0.16845368 0.5428847 0.054646846 0.5450206 0.5969906 -0.48094717 0.17453608 -0.5632776 -0.74731433 -0.3173091 0.51855624 -0.33133197 0.29353747 0.20945273 -0.6229238 0.33856744 0.3069845 0.061093923 -0.23205753 -0.7318588 -0.26395428 -0.2712444 1.1524183 -0.45705613 -0.3040495 0.23289642 0.7762506 0.3703034 0.3311072 0.7396353 -0.524624 0.42331076 -1.1625004 -0.27644318 -0.20836973 1.3908511
227 0.011482817 0.16069105 -0.41676635 -0.3571497 0.13512023 0.058426954 0.53149354 -0.28733897 -0.4055161 -0.22456793 0.41439688 -0.12789173 -0.33267623 0.11777963 0.19428131 -0.06813094 -0.03993196 0.12372211 -0.14816651 0.10652769 0.20453347 0.19325475 -0.25144485 -0.35680708 -0.025877507 -0.21634209 0.18169619 -0.45197877 1.0125287 -0.22425774 -0.13200602 0.30095476 0.005147324 0.024262374 0.21675228 -0.44082728 -1.057261 -0.2223652 -0.8044636 -0.1358837 -0.67573535 0.9357538 -0.13087612 0.5394802 0.07857437 -0.24625759 -0.37954533 -0.46348476 0.051571183 -0.39828777 0.30388692 0.10613895 -0.5514301 0.3329819 0.8012959 0.23098485 0.45750818 0.43271118 -0.006513694 0.35934854 -0.72141254 0.45398805 0.943143 -0.33030427
577 -0.35888243 0.43333784 -0.16557932 -0.44021136 -0.60920507 0.7385427 0.08651731 -0.7302748 0.21766792 0.2647812 0.43160027 0.3673346 -0.67814934 -0.56795794 -0.5600407 -0.05001082 0.28553265 -0.5559697 -0.046569526 0.27196696 -0.06475991 0.42960137 0.08145212 -0.13953412 0.008565 0.8611287 -0.068905115 0.0342068 -0.2880597 0.16875952 -0.09864001 0.16061883 0.008137432 0.6719939 -0.62691385 -0.9430907 -0.1539764 -0.40879008 0.04014742 -0.112918004 0.2222464 -0.027546294 -0.64521724 0.75421154 1.1804179 0.41827112 0.21729302 -0.4327246 -0.69135785 -0.23215197 -0.5423583 -0.091762416 -0.2730511 1.0219561 0.29355675 0.22568624 0.6157044 0.0020274874 -0.3595143 -0.5623976 -0.6670999 -0.24157463 -0.0630918 -0.69931483
456 0.75533015 1.1630933 -0.5856829 -0.059884395 0.15895869 0.66790783 0.013023347 -0.11680586 0.5912158 -0.4212374 0.007739489 0.89175236 -0.645935 0.033013605 0.14102079 0.26250497 0.23822224 -0.06454456 0.5395647 0.112975195 -0.49212 -0.25939706 0.64570725 0.21115045 -0.055511747 -0.654877 0.32645574 0.358094 -0.32523313 -0.055713978 -0.49113086 0.28258222 -0.53646356 0.28137314 0.52132344 -0.4829286 -0.454505 -0.054853234 0.13518678 -0.6177642 0.4400078 0.41615805 -0.8301693 0.57343906 0.42500362 0.33628055 -0.19263329 -0.053665042 0.3757813 -0.57831794 0.16912128 -0.22671507 -0.80758435 0.73685944 -0.21191014 -0.2585387 0.20373769 -0.34177193 0.15851256 0.7894713 -0.54545593 0.13944273 0.06267933 0.12140248
1079 0.09836734 0.22013344 -0.6657856 0.12934141 -0.2833987 0.30148023 -0.5388087 -0.108893044 0.3637849 -0.48182625 -0.11671979 -0.3729949 0.7012625 0.12267073 -0.48634478 0.6623448 0.24632214 -0.542409 0.4222383 -0.17703617 0.2540358 0.0022588018 0.45083916 -0.7981917 -0.35800457 -0.44030112 -0.4242958 -0.3768891 0.20500073 0.75836664 -0.0028316947 0.1986093 1.2057106 0.33274555 0.39361894 -0.010649635 0.24371818 0.1458239 -0.3356514 -0.6179433 0.017597672 0.25180435 -0.7182626 -0.36288884 -0.0036380384 -0.26997584 0.42406636 -0.48649743 -0.10393901 0.28769538 0.3698411 -0.4148611 0.41037884 -0.39226472 0.14598693 0.46283227 0.6859031 0.39156872 -1.0693054 0.05057767 -0.5873601 0.36360464 -0.4379581 -0.7328902
345 -0.53978086 0.048009306 -0.2733542 0.46570256 0.76891613 0.64571553 -0.5453895 -1.0320295 0.02561053 0.6908184 0.65005296 0.35000136 0.25757653 -0.3406769 -0.3429062 0.018782789 0.7077282 -0.24133302 0.5232854 -0.38102737 -0.846479 0.23323478 0.26535642 -0.84273005 0.16949034 -0.5472397 -0.07851795 0.17187738 0.41497636 0.48070294 0.6941499 0.5288415 -0.010091438 0.5778164 -0.28279597 -1.0927145 -0.58763546 -0.04534851 0.2609517 0.2734199 1.1162386 0.26172543 -0.27954194 -0.3882037 -0.13989115 -0.2200855 -0.27606672 -0.40917677 -0.08745255 -0.018250534 0.39854598 -0.19945714 0.65440935 0.8497689 -0.50479245 0.14689024 0.89912236 -0.49430943 -0.12191645 0.6691875 -0.35881457 -0.041336175 -0.17346865 -0.6450291
1282 0.85314775 -0.3974728 0.6585225 -0.14707896 0.96273303 -0.11108634 -0.4256874 -0.5921025 0.22327782 -0.6818967 0.7215328 -0.060961213 1.1420165 0.30506694 -0.457267 1.0414367 0.21381773 -0.1963171 -1.7511548 0.13941182 -0.57649064 0.1021941 -0.029005779 0.19550489 0.3247429 -0.39444435 0.20780559 0.29322886 1.3367759 0.032289766 -1.0889841 -0.39186317 -0.06821622 0.50634825 -0.010046105 -1.2944183 -0.9618335 0.074849725 -0.87326896 0.009413768 1.855863 -0.022763796 -0.04072953 0.22563851 -1.4919333 -0.36223328 2.7260742 -1.5047085 -0.51329386 -0.9325761 -0.49379727 0.32487378 -0.53073823 -0.043117613 1.1805115 0.21758579 0.4252674 0.35435 -0.9473603 1.1420937 -0.3214618 2.2354903 0.14832841 0.2851614
1234 -1.0166823 -0.055153444 0.08278517 -0.7009227 0.39767933 0.88351417 -0.56778795 -1.3702734 1.0867697 -0.1110584 0.13687061 0.15665194 -0.5906648 0.28444815 -0.052625075 -0.15317467 0.8617629 -0.05724165 -0.82690775 0.3738172 -0.82726973 -0.6581573 -0.71442527 -0.65882957 0.04426175 0.2170098 1.4384938 -0.29295006 0.00990634 -1.3230735 -0.86338943 0.089504465 0.5172449 0.9967735 0.7452823 -0.12583008 0.72286123 -0.8709095 0.7444255 0.33886394 0.052786395 1.0704223 -0.101598784 0.15976807 -0.9373543 -0.2865234 -0.14227358 -0.35010827 0.20220049 0.3179168 0.16274391 -0.1626856 0.77452123 -0.26694298 0.036835086 1.1430496 1.5897262 0.72376317 -0.40463716 1.304082 0.10933576 0.26150313 0.31271002 -0.33261585
1288 0.17362338 -0.45251462 -0.4017854 -0.16440605 -0.0894871 0.97870535 -0.04310964 -0.4225711 0.37443864 0.16182458 0.33536622 0.27727205 0.0043298528 -0.5191026 -1.0357846 -0.08740045 0.98721325 -0.69717807 0.19349883 0.757997 0.65263915 -0.09109027 -0.56174004 0.64449227 0.39358866 -0.38056606 -0.31924367 -0.030931868 -0.3130131 1.0409628 -0.23643595 -0.11933662 0.5027 0.6636264 -0.33287895 -0.53483516 -0.20858169 -0.7360017 -0.15688993 -0.3542728 0.49782324 -0.2956655 -0.17852938 0.04409994 0.84730774 0.23963074 0.27799508 -0.5865458 -0.83990073 -1.0089309 -0.8469044 0.0718178 -0.23359182 0.44346884 0.0022646592 -0.14555722 1.2561159 0.79858065 -0.4103886 0.35330907 -0.84732795 -0.15763253 0.62786806 -0.32328168
295 -0.082195684 0.12434471 -0.09456345 -0.44209084 0.12874259 0.07168899 0.38067 0.7307714 0.35834634 -0.75072134 0.24138862 0.44911718 -0.0029396121 0.326595 0.07868925 0.3320807 0.36100313 -0.21491276 -0.7511901 -0.97303975 -0.33946204 0.100311615 0.18298417 0.2354338 -0.15313184 -0.6908347 -0.15683049 -0.19239078 -0.48974544 0.4356044 -0.503908 -0.91785246 0.47378534 0.030167121 -0.28615212 -0.3375467 -0.06144304 -0.45385167 -0.22642246 -0.124696225 0.5693133 0.6387365 -0.2309609 0.5721361 -0.5963831 0.51985455 0.1529521 0.25132328 -0.099188335 0.16038118 0.2473607 0.12653667 0.39802656 0.4301512 0.24089631 -0.14110589 0.36925873 -0.12701641 -0.71300286 -0.7783683 -0.74310815 -0.013769985 0.24713005 -1.5954183
848 0.17215087 0.16635263 -0.029780537 -0.41916195 0.37030986 0.5603186 0.4768675 -0.06515637 0.81653625 0.5815563 -0.801262 0.044489823 -0.6309478 0.24335657 -0.052124426 0.07796244 0.3703672 0.5254597 -1.117512 -0.16243619 -0.60590637 -0.47951975 0.069781244 0.10850669 -0.08558834 -0.10984105 -0.017857743 -0.7818599 -0.12200143 0.4825774 -0.5543301 -0.18232065 -0.15276386 0.39265403 0.5361658 -0.86278373 -0.29182842 -0.663586 0.39488536 -0.34901467 0.24455045 -0.12479377 -0.8452723 -0.11731806 0.45255807 0.04468576 -1.0837133 -0.43172935 0.4909182 -0.028359007 -0.29225042 -0.29685673 -0.34309688 0.91509503 -0.0053502056 0.11351937 0.049180795 -0.17175722 0.5729436 -0.025257897 -0.6492736 1.3765953 -0.2691388 -0.10134363
2360 1.0051416 1.3106357 -0.057243098 -0.60279304 0.4711984 1.09083 0.299775 0.1079494 0.24484792 0.19267781 -0.05480301 0.11088646 0.15044852 -0.7909637 -0.23345242 0.09555179 0.4532651 -0.33124265 0.35784873 0.6389306 -0.17552482 0.05920195 0.29971215 0.0808902 -0.5089995 -0.13837004 -0.05549624 0.2888502 -0.0036720855 -0.110341296 0.055307906 -0.3928378 -0.064445615 0.3609153 0.3310214 -0.6831242 -0.77491224 -0.6580742 0.5527967 -0.9751759 0.9651738 0.10879607 -0.63682806 0.30156714 0.41680038 0.076287076 0.26525766 -0.010880546 1.7305032 -0.044846974 0.8527263 0.8025796 -0.14350523 -0.0055584 -0.13137339 0.37793434 0.6449153 -0.33909422 0.62003464 0.6277071 -0.65866405 -0.092483506 -0.016698513 -0.17029111
1696 -0.095966086 -0.15906838 -0.04928459 0.0054474166 -0.4609804 0.6443741 -0.47901702 0.37487662 -0.21644431 -0.35452375 0.30238402 -0.50249255 -0.3247839 -0.868458 -0.24468984 -0.4022243 0.28036565 -0.2753756 -0.58073694 0.36083075 0.30685365 0.15064965 -0.05002706 0.17910221 -0.91432524 -0.52529776 0.23597269 0.5503274 0.5843538 0.08376031 0.2882481 -0.41973576 -0.6029019 1.4498324 -0.21231857 0.10294387 -0.19278526 -0.22245786 -0.33168718 -0.20197996 0.62067056 0.8656505 -0.13515201 -0.09607466 0.27403927 -0.15142599 0.032444365 -0.96502596 0.40107855 0.17857862 0.7332783 -0.2658687 0.49291992 -0.19584739 -0.010778386 0.005436513 0.013657043 0.15565085 -0.24865958 0.16543086 -0.52318233 0.28198922 -0.8631004 -0.27727076
350 -0.34658822 -0.56957364 0.5335903 0.40981087 -1.072393 0.3197153 0.30661792 0.39760768 0.17021425 -1.0833955 0.056528736 0.32720163 -0.1707863 -0.14081979 -0.25325167 -0.51405865 1.2020569 -0.14890198 0.3552965 -0.11431449 0.27086994 0.2949696 0.21105962 -0.21089034 -0.059343077 0.39525113 0.16602464 0.4808044 1.1931173 0.45800906 -0.35823378 0.17933533 0.76001686 0.24110143 0.82340556 -0.42461625 -0.9850153 -0.3605786 -0.12967807 -0.76722467 0.148645 -1.0461257 -0.360815 0.5877478 -0.25522172 0.69461346 0.49994648 0.59641105 -1.3246644 -0.021230426 0.572664 0.27352598 0.11902916 0.8597351 0.6143974 1.0027189 0.13427134 0.3518317 0.40102133 -0.2264519 -1.0545968 -0.1466103 -0.023468195 -0.16074418
1004 0.7309628 0.38472864 0.047872297 -0.53015333 0.18152346 0.43119928 0.64236397 -0.05595939 0.830524 -0.030095441 0.22591695 0.86209416 -1.3447448 -0.23827551 -0.6425884 0.061012056 0.44960612 -1.1862334 0.5080374 0.09207769 -0.16387759 -0.7836743 0.87804866 0.49252084 -0.19850817 -0.9704933 0.59198916 0.13038795 -0.48805884 0.29468426 -0.51843923 0.30456012 -0.18559593 0.09031852 0.93755007 -0.81037927 -0.15434699 0.2047158 -0.3041944 -1.2099847 0.31150353 -0.18724318 -1.0171726 0.07550592 0.60139513 -0.7312184 0.27340046 -0.009107849 0.8431639 -1.1760278 1.4916764 0.56549823 -0.73933023 0.11440278 0.20788778 0.32270402 0.018578187 -0.28414777 0.037484888 1.054979 -0.48773998 0.16637875 -0.3459844 -0.18146482
467 0.57040244 0.22209351 0.45664948 -0.05332269 -0.24856707 0.34011057 -0.6656576 0.44879094 0.879672 -0.9992216 0.7904907 0.89706683 -1.150264 -0.18708521 -0.5037349 0.7744691 1.2724577 -0.96379536 -1.1974022 -0.6759859 0.60510373 0.14813477 0.20449762 -0.3355422 0.44980124 -0.43855548 0.016749308 0.22939575 1.538164 0.7083775 0.34373492 -0.5767755 -0.30704856 0.85106087 0.8970961 -0.48426792 -0.56669056 -1.1192781 1.1920307 0.15290374 -0.2127294 -0.7612116 -0.28333807 -1.5609857 -0.34534 -1.0923251 0.7337146 -0.9836324 0.43797204 0.05511106 0.5074848 0.25620896 -0.78767097 0.73109055 0.45598525 1.3063587 -0.4554045 0.28444582 0.93375903 -0.41013786 0.038596395 0.43687737 1.3287499 -0.7273804
560 -0.3076846 0.2840183 -0.40618613 0.45019397 0.04489428 0.89536935 -0.54367596 -0.2055545 0.27280772 -0.31217298 0.0619782 1.0036496 -0.08133347 -0.08847594 -0.61344427 0.34285834 0.4838523 0.43028915 0.4125929 -0.69316113 0.023093982 1.2377301 0.3024924 0.07018884 -0.41220388 0.06154819 -0.32015774 -0.5018103 0.040344585 -0.364465 -0.5700717 -0.37039742 -0.31164834 -0.681576 1.0868765 -0.57442486 0.710698 -0.6063237 -0.9878352 -0.17441341 0.22854982 0.13996573 -0.7104863 0.058884874 0.16912195 -0.06235695 -0.19195086 -0.88882035 0.27805424 -0.5802889 1.2708591 -0.37621912 -0.40519947 -0.37134543 0.528176 0.9140447 0.9933532 -0.7296974 0.040010396 0.07979325 0.19603549 0.5742588 0.1366931 -0.07815219
1174 -0.012656653 -0.06595773 -0.24133132 -0.49123803 -0.6430622 0.26254547 -1.0698994 0.022915585 0.14249924 -0.7469656 -0.30032468 0.21144605 -0.29156524 -0.18720509 0.60489 -0.97666126 -0.82259935 -0.7156465 -0.21928993 0.13882038 -0.80731833 -0.2722962 -0.46090883 -0.63521326 0.46086794 -0.08277912 0.4409478 -0.3142003 -0.47418067 -0.77284557 -1.034376 -0.40770566 -0.23219723 -0.33737272 0.49058774 -0.15592124 -0.47034565 -0.47886437 0.0070286635 -0.3118086 0.4029928 0.7659815 -1.1629455 0.06336412 0.08965665 0.4493968 1.0382414 -0.15174828 -0.13573886 -0.68296343 0.9865884 -1.0182616 0.3282706 0.23657772 0.93522996 0.07983451 -0.17050532 -0.710625 -0.38384852 0.20661363 -0.1313275 -0.515399 0.5269722 -0.31575665
583 -0.33711207 0.24445213 -0.44769108 -0.45112294 0.090680614 0.60391796 1.0064691 0.6880072 0.7294401 -1.0290496 0.12432739 0.5685169 -0.019796384 -0.34171343 1.0446311 -0.45107973 -0.2813801 0.26072705 -0.9732975 0.25151303 -0.5842671 -0.22043309 0.16764712 -0.4778602 0.06273248 0.4172137 -1.0640647 -0.11101957 -0.34059218 0.6445967 -0.21172535 0.23536374 -0.13652968 0.4263446 0.11697062 0.21609609 -0.09594173 -1.0207491 -0.19845383 -0.7833948 0.7133252 0.29009068 -0.04634086 -0.29500285 0.3315819 0.4819833 0.57141894 0.49791488 0.33818305 -0.67065525 1.0623122 -0.18040355 1.0992122 1.1459986 0.0035422633 -0.11776082 1.7798988 0.9256963 0.4366747 0.4847003 0.16756305 -0.21812229 -0.13538504 0.79670316
1428 0.8161271 -0.22038658 0.09690151 -0.7322799 -0.48731092 0.15470165 -0.4023481 -1.0404241 0.3331277 -0.32633957 0.09009356 0.7966113 -0.7780947 0.46153337 0.4532794 -0.6549082 0.9047557 -0.48013684 -0.33303335 0.5982017 -1.1581129 0.09515529 0.31475693 -0.8289166 -0.6840512 -0.61128426 0.75195575 -0.32945952 -0.14124647 -0.45439187 0.3072623 -0.13981687 0.5803054 -0.05633696 0.29900733 0.21987738 0.89289606 -0.3136205 0.5783458 -0.15638892 0.3571742 0.5758423 -0.8592322 -0.2214456 -0.28839585 -0.27701178 -0.21894509 -0.404737 0.06308597 -0.13153829 0.34993485 -0.18331595 -0.72415376 0.5288043 0.7480136 -0.14428283 0.8382794 0.3596512 0.7309162 0.20648949 -0.97779316 0.16391037 0.7630975 0.03905084
