2 64
1 -0.001338111 -0.012051106 0.0078082234 -0.010735693 0.019416975 0.009760517 0.011751633 0.016372485 0.004206937 0.0029331173 0.007078593 -0.012780032 0.012169021 0.009071858 -0.005818237 0.021441376 -0.009837847 0.015048763 0.008865851 -0.0026677856 -0.0041016648 -0.005661539 -0.017590845 -0.0017176489 0.014191495 -0.020657593 0.016247816 -0.0149842985 -0.003565445 0.011536489 0.007220543 -0.0067757145 -0.019462246 0.015965763 -0.0019744877 0.0002744599 -0.01685922 -0.019845607 -0.0024313752 0.008151506 0.003970314 0.013866795 -0.012702166 -0.00018336118 0.010493336 0.016532008 -0.017824024 -0.017694276 0.005432546 0.009744752 -0.0029195368 0.0033790253 -0.0033512167 -0.019185195 -0.008308258 -0.016896822 -0.0052353987 -0.023627115 -0.0087955445 -0.007474824 0.0012059925 -0.015292843 -0.013176955 -0.0071666697
0 -0.0014888147 -0.007582166 0.0006736893 -0.00010009706 0.011550068 -0.00422893 0.0008663338 0.0060923016 0.0046031927 0.009986039 0.0084596425 -3.2712163e-05 0.00041081687 0.009934965 -0.003207627 0.017288009 0.003641373 0.008701611 0.00795524 0.004688622 0.004242956 0.0031481173 -0.010971697 0.008585538 0.0023067822 -0.017122049 0.009446537 -0.0027718884 -0.00769261 0.006535643 0.011877727 -0.008879316 -0.016320761 0.007855577 -0.0064073084 0.008219465 -0.013844534 -0.014860586 0.0006015373 -0.0058087925 -0.0058674435 0.012147078 -0.0019491443 0.0017671627 -7.1926945e-05 0.0044656303 -0.008579366 -0.013364491 -0.005815603 0.0070289522 0.0026633313 -3.0664174e-05 -0.008251451 -0.010769966 -0.0055796024 -0.0147838 -0.004947022 -0.017453674 -0.0003771468 -0.011720889 -0.000640357 -0.010528859 -0.0055742315 -0.012008673
