34 64
0 0.11931809 0.049004804 -0.3030079 0.16024871 -0.13746795 -0.18672085 0.063334055 0.14136074 -0.056577884 0.08503644 -0.15529692 0.19277754 -0.2737356 -0.14609246 0.16442364 0.0045710574 0.12229514 -0.09245131 0.14685312 -0.10251489 -0.007842325 0.29540968 -0.09579142 -0.035344854 0.24972643 -0.10223296 0.22121453 -0.03671186 0.073713474 0.118517324 0.24606903 -0.08210065 -0.14592975 -0.11505073 -0.12774047 -0.1200788 0.3656912 0.23472442 -0.055945244 0.14167355 -0.0022234414 0.14887957 0.097740546 -0.16991651 -0.08667248 -0.05625947 -0.19125502 -0.23949325 0.30791548 -0.21464102 0.009678524 -0.050646227 -0.08373078 -0.059234265 0.28890985 -0.2954483 -0.048109215 0.08657944 -0.17992853 -0.09475906 -0.13464291 -0.21111408 -0.13071594 -0.28851584
1 0.031653255 0.05426076 -0.27073342 0.082304716 -0.18690728 -0.21793422 0.2630724 0.14324997 -0.063867114 0.09833912 -0.1298683 -0.030176027 -0.0368559 -0.055955168 0.19551626 -0.16382562 -0.05098488 0.008226309 0.09258896 -0.117837444 0.21746665 0.10524419 0.1148799 -0.028848253 0.11471167 -0.21499112 0.11528267 -0.3215446 0.14941706 -0.0008285908 -0.3025692 -0.18765076 -0.08839451 -0.25051546 0.09801067 0.03504488 0.16440542 -0.06317574 0.089590505 -0.04553584 0.093156904 0.10684099 -0.13538617 0.07714249 -0.13152568 0.07033124 0.013003905 0.07303472 0.33029795 -0.26162934 0.06559086 0.25590363 0.22359364 -0.07980509 0.34524918 -0.20760596 -0.038750447 0.15464634 0.0023264817 0.075650886 0.17208591 -0.017932842 -0.04819953 -0.26088953
33 0.17113021 0.06620565 -0.3129661 0.15608504 -0.09960142 -0.17257658 0.09028448 0.15134345 -0.017759513 0.088775285 -0.16981715 0.16247065 -0.28828683 -0.20312132 0.0947142 0.04209696 0.18394797 -0.1059197 0.1536526 -0.057945136 -0.024001446 0.26001725 -0.060543254 0.016744087 0.2932709 -0.11568349 0.22974321 0.021437462 0.10896038 0.1145384 0.26780617 -0.06865151 -0.08705239 -0.16030626 -0.1299448 -0.12228699 0.39785427 0.24761851 0.012344742 0.18079391 0.0118450485 0.23184742 0.08276728 -0.1168957 -0.078641616 -0.0296714 -0.20971905 -0.31894174 0.2817384 -0.22613636 -0.016819615 -0.07158293 -0.08608713 -0.024824508 0.20649964 -0.32097158 -0.05670856 0.08618427 -0.13110146 -0.09454412 -0.18342951 -0.25672388 -0.03964507 -0.30388784
3 0.027739717 0.043210946 -0.30720377 0.18140353 -0.21002209 -0.26246643 0.14834815 0.04887711 -0.059422564 0.060467135 -0.139017 0.07981424 -0.15161738 -0.06726147 0.2511795 -0.14741221 0.00068686204 -0.08453042 0.17435232 -0.122782975 0.1776747 0.24095313 0.098408006 -0.062298622 0.17732398 -0.22136886 0.08661854 -0.3116636 0.07938367 0.022716941 -0.12582901 -0.073886976 -0.19135065 -0.1918702 0.056128185 -0.076073065 0.17271632 0.042320505 -0.03224063 0.050527554 0.052488983 -0.012298509 0.0288396 0.0039800284 -0.12453591 0.009231574 -0.04706638 0.010691052 0.3113214 -0.24036683 0.014124747 0.12584521 0.10304994 -0.07070208 0.31436014 -0.28680152 0.034182396 0.16446254 -0.118087016 0.020042155 0.047775134 -0.004312958 -0.18392472 -0.26895034
2 0.033394102 0.047542624 -0.35393476 0.19016054 -0.22207879 -0.30521095 0.1992601 0.0031852638 -0.021621898 0.0761085 -0.122701116 0.039296918 -0.13097887 -0.09558361 0.2409015 -0.19631936 0.06946725 -0.07996244 0.2015403 -0.08579597 0.26584306 0.24238457 0.20306699 0.00038210675 0.20252575 -0.27657315 0.030236056 -0.38950548 0.0946921 -0.0110425 -0.23131993 -0.08356192 -0.20229203 -0.25986126 0.15637468 -0.09660456 0.107878186 -0.011018229 0.022213658 0.05590293 0.12409609 0.012300499 -0.013776298 0.14164864 -0.15166292 0.044148386 -0.034269247 0.036240168 0.2507422 -0.24578716 -0.0038872715 0.16404161 0.1553879 -0.04152229 0.29625538 -0.31282482 0.04837363 0.1701498 -0.0432835 0.041628823 0.028050534 0.004871453 -0.1388787 -0.25635946
4 -0.0102774985 0.040102784 -0.32439432 0.17851505 -0.23323399 -0.2841337 0.1509102 -0.0004810195 -0.055366248 0.08167843 -0.1379764 0.07151632 -0.11740422 -0.0143170785 0.27351168 -0.19068961 -0.021164184 -0.069212936 0.18176948 -0.11794176 0.2477618 0.25097555 0.13201754 -0.07350092 0.14373864 -0.25767085 0.060361896 -0.39223152 0.06495245 0.013563625 -0.21741292 -0.107969925 -0.23316865 -0.18617569 0.121110894 -0.07445999 0.09307505 0.010833413 -0.05367503 0.025544876 0.079197094 -0.073132865 0.0017452084 0.04852972 -0.1137491 0.040008843 -0.0006650851 0.07144993 0.29100066 -0.23139681 0.011593673 0.15296525 0.14145409 -0.084903575 0.3416376 -0.2374856 0.03669252 0.15872782 -0.11983927 0.050080437 0.09750256 0.046641614 -0.22675978 -0.267757
32 0.13590536 0.13115375 -0.17035331 0.017688934 -0.08941727 -0.022158857 0.0917403 0.368553 -0.13435833 0.11935891 -0.15455584 0.06586044 -0.10621579 -0.07263594 0.06899807 0.06826913 -0.15551995 0.008575641 -0.06148801 -0.12080914 -0.12014763 0.09306958 -0.23765323 -0.16869669 0.12748227 -0.015763944 0.34782335 0.08492789 0.09168526 0.17217414 0.16109802 -0.24650171 -0.00081726484 -0.03862102 -0.2596881 0.07245258 0.46106377 0.16830514 -0.024041967 -0.052201252 -0.13330622 0.22588494 -0.05994818 -0.28294554 -0.03541287 0.03004002 -0.097106725 -0.24876128 0.45991015 -0.23742428 0.18250422 0.029614624 -0.009811795 -0.17394398 0.28857824 -0.13729994 -0.18662098 0.006134502 -0.20211552 -0.08020759 0.13085632 -0.20766594 -0.087442756 -0.3364042
9 0.09163479 0.05901606 -0.3153482 0.13477063 -0.13244526 -0.21079348 0.13275576 0.086014956 -0.02757057 0.07709632 -0.14044215 0.10550372 -0.21319993 -0.15733606 0.1633838 -0.07030938 0.12306681 -0.073604174 0.14291844 -0.06749969 0.0957653 0.2332111 0.039410353 -0.008497496 0.23693968 -0.16656429 0.14801438 -0.12865847 0.10342621 0.06392929 0.06204592 -0.084522694 -0.12728256 -0.18210512 -0.027536323 -0.0957451 0.26432943 0.12947308 0.0026828076 0.096923225 0.049734563 0.13660344 0.034496132 -0.007650851 -0.12049189 -0.021236224 -0.12174614 -0.15895797 0.2640334 -0.21515426 0.00055903895 0.036273107 0.016848493 -0.035488132 0.24498759 -0.304251 -0.020150743 0.10020737 -0.102619864 -0.04238008 -0.08484868 -0.14515795 -0.07811638 -0.27669254
14 0.014802622 0.059962988 -0.32966268 0.14776912 -0.21030082 -0.25595224 0.15525778 0.02222762 -0.042137664 0.0810073 -0.1321518 0.058390863 -0.14431126 -0.057196323 0.23523392 -0.17643134 0.008810787 -0.066532135 0.15751792 -0.09375013 0.22496675 0.22768022 0.09548202 -0.08030276 0.16494809 -0.22488281 0.10418053 -0.32122937 0.082174234 0.03855366 -0.15696038 -0.12790339 -0.18549722 -0.19258736 0.0743316 -0.06200652 0.12872902 0.036996942 -0.028146049 0.019251911 0.04967963 -0.012521163 -0.02175624 0.03828135 -0.11884871 0.026445232 -0.03210218 0.010678954 0.28465572 -0.2191132 0.04128955 0.11602001 0.124521226 -0.065053836 0.3297865 -0.2597898 -0.0027138977 0.13432646 -0.13650207 0.0343596 0.05865121 -0.007218922 -0.19384754 -0.30053732
24 0.13226515 0.12603398 -0.22356936 0.052200392 -0.09686248 -0.068964496 0.013713722 0.3076942 -0.1276719 0.12978214 -0.17430592 0.17726378 -0.2206902 -0.07996735 0.10333117 0.07772744 -0.06854883 -0.037667748 0.020015035 -0.13716365 -0.11829051 0.23050997 -0.30257863 -0.18280296 0.18324864 0.011535176 0.3922781 0.09983005 0.051089875 0.20179723 0.34159753 -0.24340796 -0.0811734 0.0014581606 -0.2835685 -0.01933552 0.46530905 0.29699302 -0.108223796 0.05186186 -0.14105001 0.17029773 0.051367056 -0.3678352 -0.020412456 -0.020982936 -0.15534379 -0.33558875 0.4355537 -0.21290325 0.14727643 -0.0818382 -0.112619005 -0.15697184 0.34847856 -0.18815124 -0.191285 -0.013795979 -0.3286875 -0.114588834 0.03264419 -0.23403223 -0.17579019 -0.36500722
7 0.12572508 0.05581541 -0.2182042 0.019586494 -0.13199247 -0.16767508 0.4831256 0.3770065 -0.07711272 0.08616652 -0.13786335 -0.15456253 0.07473427 -0.21190865 0.123729244 -0.16255292 -0.006738451 0.07409097 0.015663115 -0.10054772 0.21174829 -0.10993289 0.2238854 0.087960206 0.13316396 -0.2194777 0.105435655 -0.2630151 0.26115927 -0.04390535 -0.47168517 -0.21150059 0.12772773 -0.42093384 0.108221285 0.20610552 0.36062828 -0.2916513 0.36123976 -0.18439592 0.1406152 0.4722396 -0.2988417 0.250895 -0.26295078 0.08072045 0.056030754 0.07861366 0.41887572 -0.39084628 0.12645638 0.49939424 0.36986533 0.015000855 0.3338831 -0.27995467 -0.07880648 0.23271611 0.32423428 0.13607548 0.22821885 -0.1070051 0.29959399 -0.24059033
6 0.093640015 0.02599442 -0.2472941 0.01804909 -0.13848606 -0.17509693 0.50775486 0.34374505 -0.070951805 0.09890461 -0.139874 -0.18857801 0.0712186 -0.18319654 0.12990893 -0.19543706 -0.027544037 0.0813499 0.025074797 -0.110450864 0.22481284 -0.12590872 0.25148812 0.08946488 0.13714443 -0.26371905 0.12238231 -0.31370628 0.2854409 -0.07173649 -0.5514182 -0.2098827 0.10449287 -0.4502762 0.1297692 0.20700501 0.30502823 -0.30693805 0.35150385 -0.18449643 0.16957937 0.43502036 -0.32608238 0.25737137 -0.27075794 0.09184628 0.06748666 0.14392577 0.41892928 -0.40011698 0.09577917 0.5183973 0.4248454 0.002292996 0.30673382 -0.25873512 -0.042917848 0.25243032 0.32612497 0.15203515 0.25373933 -0.09054646 0.26261064 -0.26121882
8 -0.01927486 0.04036288 -0.3382046 0.18193732 -0.2520897 -0.30129626 0.1663459 -0.025115985 -0.05891263 0.06891597 -0.12887822 0.062243097 -0.11413107 -0.018021766 0.29029182 -0.2163519 -0.0044387314 -0.06286559 0.18738249 -0.115928605 0.28240016 0.24978922 0.15858902 -0.07642253 0.139914 -0.2636153 0.04735747 -0.4236294 0.06617833 -0.00037638147 -0.24775635 -0.10116495 -0.24204546 -0.19199565 0.14882334 -0.07799871 0.06974875 -0.0043699285 -0.053474907 0.028970307 0.08822535 -0.08575012 -0.014682704 0.062333807 -0.11936565 0.040625215 -0.009734267 0.10615637 0.28265917 -0.21576022 0.009973603 0.15635403 0.15434901 -0.08095342 0.36045974 -0.2530041 0.045805335 0.1696887 -0.11833516 0.059025493 0.09766139 0.05854248 -0.24052185 -0.26529202
28 0.10780078 0.117426835 -0.22478025 0.034808654 -0.09593975 -0.050194845 0.023458008 0.27407986 -0.12153687 0.13494997 -0.16702728 0.11993515 -0.2001516 -0.064161696 0.10553078 0.057252835 -0.10607924 -0.023047725 0.003954976 -0.13393396 -0.09012333 0.17488055 -0.27587593 -0.19916104 0.15970904 -0.021527532 0.39135 0.06913985 0.07204248 0.20820117 0.26373652 -0.24694513 -0.061639827 -0.011163232 -0.27926502 -0.004197706 0.425027 0.2656961 -0.110487886 0.023235166 -0.14772129 0.13891825 0.012022088 -0.338778 -0.023073267 -0.0071481275 -0.12125466 -0.2788763 0.4423353 -0.20591258 0.14735918 -0.07226406 -0.062743746 -0.17317878 0.32016712 -0.16260815 -0.16775322 -0.011672988 -0.3339848 -0.09479671 0.07528292 -0.21064742 -0.18734547 -0.3697669
31 0.0745901 0.047029205 -0.31356505 0.16530925 -0.15384407 -0.23056252 0.11877346 0.07119935 -0.026485167 0.077422954 -0.13938783 0.13989945 -0.22995508 -0.1351215 0.17213163 -0.060589258 0.12102508 -0.09387097 0.17928202 -0.090354994 0.09084512 0.278487 0.028053286 -0.0040334836 0.23444313 -0.16808975 0.1508326 -0.14614189 0.09812876 0.06975902 0.074331045 -0.07536556 -0.16426334 -0.17670444 -0.011475894 -0.12473035 0.24182107 0.16998616 -0.025550485 0.13296364 0.056902938 0.08314395 0.0686984 -0.040169246 -0.10923308 -0.037648004 -0.14090043 -0.16494218 0.25305888 -0.20242818 -0.026517613 0.0017574035 -0.017387532 -0.042943176 0.27598238 -0.31348637 -0.007774642 0.11589174 -0.12693498 -0.047971625 -0.107182465 -0.13489509 -0.12024838 -0.27751333
30 0.12033887 0.09805187 -0.332973 0.1268902 -0.11745465 -0.16429135 -0.014888702 0.14568497 -0.055804662 0.12114629 -0.18922423 0.24201727 -0.34716287 -0.12668261 0.14493316 0.049626306 0.09631792 -0.090249114 0.13302268 -0.10281882 -0.034514908 0.3699122 -0.23157205 -0.1288365 0.26492077 -0.051656477 0.35157278 0.051814057 0.048774183 0.18994683 0.41021985 -0.17192964 -0.17670314 -0.042380963 -0.20159529 -0.14210661 0.37048897 0.38906032 -0.1430393 0.16814788 -0.07767699 0.089252606 0.14792837 -0.30031604 -0.0154375555 -0.06282965 -0.2037342 -0.3711613 0.3279026 -0.19764468 0.0425978 -0.16634394 -0.16601442 -0.10409872 0.32500312 -0.2566848 -0.11680675 0.0016439275 -0.36928558 -0.11073303 -0.13819736 -0.26008028 -0.24813768 -0.3788349
11 0.08261562 0.051895455 -0.19371718 -0.017742101 -0.13265441 -0.12274176 0.4815598 0.41268075 -0.102750145 0.09915361 -0.12544008 -0.1808605 0.119205795 -0.15409358 0.12012548 -0.17070934 -0.10417839 0.09765258 -0.02792438 -0.120942846 0.18874775 -0.14824234 0.16440052 0.03332559 0.084572606 -0.20934427 0.15735531 -0.2579097 0.26979533 -0.023307256 -0.51053214 -0.26209906 0.13825145 -0.3898796 0.06472656 0.2548889 0.34548187 -0.2933169 0.33159497 -0.23457174 0.099453054 0.4530367 -0.34339347 0.18734482 -0.25089675 0.08959452 0.08542725 0.12712099 0.46711984 -0.38222405 0.1676223 0.51878947 0.40533724 -0.022971956 0.3682026 -0.21767414 -0.11295136 0.2235277 0.27914008 0.14485423 0.3167419 -0.09016835 0.25871596 -0.25425252
5 0.06713723 0.01882718 -0.26667592 0.02544315 -0.16836055 -0.20841166 0.49800143 0.30061847 -0.051525503 0.10109378 -0.12950146 -0.17925051 0.06321245 -0.17099774 0.1560962 -0.21293338 -0.015948385 0.07783345 0.034504924 -0.11201548 0.2684963 -0.09743815 0.26607582 0.07025112 0.12917641 -0.29874384 0.124377586 -0.34423125 0.30028456 -0.073694676 -0.5715786 -0.22034375 0.08522521 -0.47028965 0.15196061 0.19868895 0.26385185 -0.2914534 0.3242911 -0.1741901 0.17031454 0.3948217 -0.3196385 0.26269883 -0.25776276 0.096872486 0.07849297 0.14325611 0.40965283 -0.38940495 0.09515432 0.51019347 0.43701404 -0.0116986865 0.34323993 -0.2718184 -0.03130212 0.2553585 0.29378793 0.17367986 0.26027313 -0.0880742 0.22885348 -0.2862312
25 0.11025782 0.15751946 -0.1413868 0.0026732322 -0.107358925 -0.015072333 0.038544722 0.3964998 -0.19411157 0.122009665 -0.14962727 0.1138944 -0.11985233 -0.0027852682 0.09302503 0.07773919 -0.25504282 0.019900294 -0.0769989 -0.1760308 -0.14943108 0.1355791 -0.3489978 -0.2853307 0.09730882 0.04108958 0.42579716 0.08421036 0.05069763 0.20079884 0.23827617 -0.31040284 -0.04555725 0.046768606 -0.32329196 0.085737556 0.4657087 0.23872794 -0.12742023 -0.062098216 -0.19348845 0.13303466 -0.015371319 -0.43616393 -0.008988849 0.009595444 -0.08869345 -0.2660726 0.5366508 -0.22948553 0.23957908 -0.018199043 -0.04964656 -0.22846635 0.37275457 -0.099711195 -0.22511621 -0.019494334 -0.35208106 -0.09382496 0.21639559 -0.17702846 -0.19632883 -0.3785972
26 0.0680506 0.12989077 -0.17243324 0.010799823 -0.13173561 -0.04008844 0.031066066 0.2986654 -0.17542955 0.14242381 -0.15584107 0.09908874 -0.13060652 0.031725653 0.14660312 0.043804497 -0.2471932 0.012152626 -0.035472974 -0.17839539 -0.077615656 0.15994163 -0.31155837 -0.28446078 0.08463759 -0.0042740065 0.4051325 0.018068047 0.05857671 0.20604141 0.17110562 -0.3060178 -0.09432902 0.04461787 -0.27418643 0.03757361 0.39213273 0.23384771 -0.15318859 -0.047149155 -0.17775868 0.055510715 -0.013853763 -0.407935 -0.0036610719 0.010072816 -0.06874767 -0.19669229 0.4954693 -0.1996938 0.21245147 -0.03207193 -0.010828652 -0.23187514 0.39588785 -0.08993246 -0.19759499 -0.028703999 -0.38854918 -0.07947029 0.2228288 -0.14507979 -0.2656964 -0.36894426
29 0.10167802 0.08097257 -0.25315407 0.10919651 -0.1362951 -0.15016757 0.064184636 0.1578618 -0.08367479 0.0894674 -0.146497 0.13626158 -0.19892074 -0.07677939 0.15304078 -0.008310949 -0.01713733 -0.06926908 0.08454001 -0.11033637 -0.0044137705 0.22406586 -0.104335 -0.115415536 0.18668082 -0.10054902 0.23588836 -0.064882 0.07422688 0.12127961 0.14039832 -0.1396659 -0.13381185 -0.09117624 -0.13164623 -0.056685638 0.3164508 0.19542696 -0.07223581 0.07242721 -0.041798204 0.07903496 0.04360199 -0.17839491 -0.05112073 0.0034267444 -0.12814768 -0.19247384 0.33849558 -0.20845081 0.07844635 -0.030957617 -0.014775919 -0.1197671 0.27253252 -0.22280769 -0.08125973 0.05472556 -0.22485335 -0.070967786 0.019158341 -0.13955759 -0.17689027 -0.30294022
20 0.041222144 0.054279827 -0.28491575 0.14624 -0.17724209 -0.22234625 0.1427671 0.07110489 -0.04371692 0.07341356 -0.13394378 0.07348254 -0.15350935 -0.077450916 0.18387917 -0.10127332 0.022685137 -0.06940721 0.13764787 -0.09340503 0.15126066 0.21793716 0.057324562 -0.051341757 0.16082968 -0.187077 0.12984796 -0.22870249 0.09138512 0.0501767 -0.067832604 -0.09994968 -0.14111598 -0.17448637 0.028298188 -0.054481305 0.19164218 0.07912192 -0.00663721 0.04454588 0.0383713 0.05770094 -0.0025885173 0.006446595 -0.1024207 0.014346544 -0.05709987 -0.066178806 0.2827122 -0.21491335 0.028865255 0.079544164 0.07512812 -0.07209201 0.2914245 -0.24639224 -0.016663915 0.116274334 -0.10323606 0.008965264 0.015251482 -0.064610645 -0.13276808 -0.2749627
16 0.14822237 0.07810062 -0.31442484 0.14628738 -0.10997749 -0.15451948 0.028074726 0.13709438 -0.036896758 0.08730362 -0.16346659 0.20443839 -0.3082591 -0.16977112 0.12344527 0.036513217 0.1447878 -0.10829027 0.14442964 -0.08218002 -0.04540433 0.31209522 -0.12326025 -0.049419273 0.28136086 -0.0882573 0.26884186 0.04050239 0.08475577 0.15450269 0.336452 -0.10070489 -0.12575772 -0.1195263 -0.1791346 -0.14566623 0.3769203 0.2992152 -0.066352375 0.16860367 -0.02906635 0.15627821 0.12000784 -0.18484956 -0.07076316 -0.0558822 -0.21113178 -0.3391307 0.29099405 -0.2034129 0.00834625 -0.13025193 -0.118777245 -0.058393653 0.24681272 -0.31156075 -0.075351745 0.041237455 -0.24176612 -0.1131048 -0.18480712 -0.2508914 -0.12984928 -0.32110468
23 0.16114494 0.074638546 -0.27743992 0.13488269 -0.09776515 -0.12199946 0.039833214 0.17584106 -0.043084823 0.08627319 -0.15668336 0.16700454 -0.29112777 -0.16833176 0.10710403 0.057316385 0.08359267 -0.10776788 0.11390743 -0.08058503 -0.080138035 0.25482062 -0.132291 -0.06356614 0.2704213 -0.07015215 0.27215132 0.059167333 0.08099442 0.16056071 0.31280917 -0.08899389 -0.09071828 -0.10976894 -0.21180965 -0.116797395 0.4094772 0.2720243 -0.054678217 0.13782924 -0.05294677 0.17381401 0.10643967 -0.1964865 -0.06807011 -0.042594112 -0.20018715 -0.32865277 0.31433657 -0.19996756 0.032515444 -0.11980037 -0.11529751 -0.06636236 0.2230385 -0.29408744 -0.07048789 0.044733334 -0.2264189 -0.10370334 -0.14296767 -0.2409208 -0.11799968 -0.3220696
13 0.02056078 0.054920606 -0.30327374 0.13751777 -0.2108189 -0.25078797 0.19830427 0.051497966 -0.055030026 0.0809794 -0.12244851 0.018973315 -0.08990429 -0.054935023 0.23105292 -0.19122088 -0.010615686 -0.03925405 0.1349586 -0.09918387 0.24207672 0.18860672 0.13591637 -0.06434802 0.1407699 -0.22791593 0.08291559 -0.35305196 0.09805925 0.016605103 -0.24310903 -0.1415347 -0.15439181 -0.22284922 0.10932664 -0.02884067 0.12827332 -0.023540122 0.019515386 -0.013684722 0.07370879 0.016032944 -0.06713221 0.07096979 -0.13732113 0.04027958 -0.00919294 0.06394784 0.29609063 -0.2341633 0.051467683 0.18374263 0.17257442 -0.06285221 0.33594254 -0.24970756 0.007836432 0.14472102 -0.07119464 0.05102479 0.10593259 0.018002719 -0.14324944 -0.27662316
18 -0.003443939 0.045262117 -0.28980133 0.115164265 -0.20971876 -0.24166274 0.22983664 0.09193799 -0.057642605 0.092139825 -0.12639415 -0.0032181847 -0.037497364 -0.045786146 0.23220426 -0.18260168 -0.05359727 -0.017841686 0.118849084 -0.11963408 0.2538101 0.1464749 0.14175765 -0.054636613 0.10687874 -0.24064936 0.08408579 -0.35689437 0.12258974 0.0023021982 -0.30217245 -0.16274387 -0.13250132 -0.22674535 0.119225375 0.012299901 0.13113305 -0.05758017 0.04353556 -0.045015663 0.078304976 0.04591573 -0.09865134 0.08795907 -0.12802385 0.06698044 0.02023055 0.089459315 0.3145395 -0.2514488 0.066662416 0.23876359 0.20624332 -0.08860609 0.3517502 -0.21833563 -0.011037047 0.16410309 -0.029498544 0.06751403 0.16684806 0.012628144 -0.110203475 -0.2568603
22 -0.017915064 0.022854518 -0.32488325 0.14368331 -0.22976306 -0.27738452 0.23778652 0.04033113 -0.045206174 0.07223522 -0.1328834 0.01832369 -0.07660296 -0.053920463 0.2560913 -0.20820656 -0.01130735 -0.03775733 0.15952098 -0.12116646 0.28486738 0.18721312 0.16768242 -0.027783697 0.124063216 -0.27237445 0.074624926 -0.40041128 0.1254051 -0.011216944 -0.29891947 -0.12772213 -0.176616 -0.24508376 0.15198466 -0.018656017 0.09556906 -0.04565745 0.022068178 -0.009797549 0.104085326 0.024550376 -0.06528884 0.103882656 -0.15225014 0.037592903 0.012590179 0.095509484 0.29129556 -0.24917027 0.022820242 0.21910986 0.19737639 -0.05761789 0.36964113 -0.2501994 0.012638508 0.1930848 -0.026421534 0.08334652 0.11971973 0.025458975 -0.13247275 -0.26296735
15 0.15650417 0.07455994 -0.27906832 0.13480653 -0.08717081 -0.12851667 0.029398935 0.16925515 -0.041285664 0.0942917 -0.16167606 0.19918193 -0.30521137 -0.16363573 0.11074408 0.06577217 0.109852 -0.1149032 0.11993195 -0.082740426 -0.073243774 0.2908838 -0.15195942 -0.049396217 0.27303445 -0.06629326 0.28635716 0.060415473 0.076877125 0.15082258 0.35075003 -0.09538354 -0.112816304 -0.10178543 -0.20979828 -0.1311176 0.39494255 0.29331338 -0.065971434 0.16326344 -0.046592735 0.16319036 0.13119987 -0.21365957 -0.06252113 -0.056789186 -0.20100455 -0.35209182 0.30579066 -0.20160444 0.012991245 -0.12903513 -0.12838453 -0.058715846 0.22317512 -0.297 -0.06840833 0.03805722 -0.23579542 -0.10868406 -0.15912195 -0.25571576 -0.12274244 -0.3209521
17 0.105813764 0.0144547615 -0.2740181 0.036089472 -0.16611193 -0.2004131 0.60081357 0.38236478 -0.081639044 0.08647535 -0.14225043 -0.22485404 0.12211723 -0.20802881 0.13723852 -0.23573576 -0.015845763 0.08474505 0.02137073 -0.124856345 0.2751951 -0.17005098 0.33967203 0.11369219 0.15268981 -0.32324186 0.10251929 -0.36598107 0.33633822 -0.100309245 -0.67316884 -0.2277309 0.12452674 -0.5324832 0.17739792 0.23672962 0.3317957 -0.38292113 0.4176073 -0.20223573 0.20280905 0.5118303 -0.38022828 0.33551988 -0.3248249 0.10920925 0.08764884 0.18678461 0.4682367 -0.45666182 0.10598918 0.6059961 0.5071342 0.026031492 0.33896318 -0.31402373 -0.045222383 0.30502123 0.42429113 0.17764096 0.29648978 -0.08244666 0.3326864 -0.27263895
19 0.11936158 0.06744583 -0.3061994 0.14530358 -0.11977005 -0.16750318 0.037008982 0.11297546 -0.030628473 0.08833894 -0.15498328 0.17975593 -0.2808291 -0.13798279 0.13518398 0.005034477 0.08553327 -0.10446081 0.13424253 -0.09219775 -0.0103926575 0.28773135 -0.09700782 -0.065811716 0.25130838 -0.10570447 0.25307155 -0.02982885 0.07677923 0.13963151 0.24623 -0.09005442 -0.13618025 -0.11522213 -0.14371835 -0.13386337 0.32251257 0.26441613 -0.08476786 0.14397545 -0.03939713 0.09191927 0.09892127 -0.16846897 -0.061297428 -0.043437682 -0.17700894 -0.27546707 0.29628137 -0.20227374 0.010987929 -0.10056967 -0.09036578 -0.07888337 0.24880613 -0.2870143 -0.04665968 0.054665495 -0.2410393 -0.078125745 -0.11909589 -0.20369719 -0.17389931 -0.3249264
10 0.07967253 0.051499113 -0.32797644 0.18641399 -0.17565525 -0.22685723 0.06828077 0.0205759 -0.018513435 0.08221423 -0.15314156 0.13922343 -0.24503891 -0.112733044 0.19357748 -0.069711626 0.103797205 -0.11429648 0.18927874 -0.083088405 0.09502758 0.2866718 0.027875913 -0.026727075 0.22867607 -0.19444561 0.13816097 -0.1867122 0.07785353 0.070849955 0.08199544 -0.05862901 -0.18670987 -0.15449163 -0.0067261304 -0.1451508 0.22160956 0.16838919 -0.05996554 0.15046786 0.034603722 0.01715287 0.078050904 -0.058897443 -0.07141291 -0.0030680618 -0.13697818 -0.1407311 0.26154822 -0.20090084 -0.023249965 -0.025930997 -0.011306427 -0.052689128 0.24054664 -0.29886097 0.01224693 0.11747244 -0.1697612 -0.03747393 -0.09643418 -0.104455486 -0.18596675 -0.2818761
21 0.12384533 0.065122694 -0.29435527 0.13938503 -0.11832138 -0.1706348 0.054472346 0.12064405 -0.041049488 0.08674505 -0.15102558 0.15799533 -0.26886052 -0.14171848 0.13652451 0.012352073 0.09971194 -0.095464304 0.13822374 -0.08666465 -0.0023451964 0.28134874 -0.084891714 -0.056758605 0.24717703 -0.10176336 0.23390257 -0.032439116 0.07474896 0.120978445 0.23679803 -0.08577679 -0.13498227 -0.11930984 -0.1275966 -0.12982303 0.32929787 0.2474819 -0.06246917 0.14355429 -0.015753796 0.11021821 0.09283111 -0.16188508 -0.07576828 -0.044505663 -0.17745784 -0.25213856 0.28214327 -0.2013637 0.019668106 -0.08381352 -0.073383056 -0.062551014 0.25336614 -0.2872882 -0.04844163 0.06069796 -0.21787563 -0.08146503 -0.12009786 -0.19981325 -0.14582835 -0.30358237
27 0.16153356 0.09169593 -0.33132982 0.1144745 -0.08570228 -0.14121976 0.01981195 0.15435062 -0.038685244 0.11656996 -0.17798685 0.20511134 -0.338398 -0.17364295 0.100540124 0.05357317 0.14668085 -0.099666975 0.11772769 -0.07698169 -0.047602188 0.31256115 -0.18449484 -0.07349949 0.29475135 -0.06381784 0.33814123 0.08884138 0.08780191 0.17297482 0.39604238 -0.15633717 -0.12350201 -0.10606983 -0.20827824 -0.12761188 0.38501972 0.34990063 -0.07580238 0.1627306 -0.057404373 0.17213619 0.11464384 -0.22047834 -0.038112506 -0.046269238 -0.21793875 -0.39219877 0.30590364 -0.20985705 0.033759348 -0.15813239 -0.14109324 -0.06333135 0.2479939 -0.27876917 -0.11427648 0.0061761234 -0.28259167 -0.11108788 -0.17767806 -0.2982193 -0.15060374 -0.37558115
12 0.022368813 0.04145894 -0.28452307 0.10359108 -0.19754672 -0.23850021 0.28530982 0.14536393 -0.06007211 0.080623165 -0.1372651 -0.03619438 -0.028446807 -0.063384935 0.21812117 -0.17421408 -0.054033678 -0.001373745 0.09006243 -0.10675885 0.23970288 0.10768045 0.16062127 -0.012885859 0.112073794 -0.25119016 0.09621769 -0.3492602 0.16135575 -0.0074066855 -0.33927244 -0.16069587 -0.09478471 -0.2654004 0.11539389 0.04340106 0.18312289 -0.098056 0.11007091 -0.059243776 0.09868183 0.13780017 -0.14855559 0.12771112 -0.1577718 0.075481914 0.025593614 0.084707774 0.34617174 -0.28575134 0.061154373 0.28442866 0.24947716 -0.07266349 0.346623 -0.22729263 -0.017753668 0.17628945 0.03521534 0.08780923 0.16586177 -0.015388609 -0.03627783 -0.27244407
